{"torch_version": "2.0.1+cpu", "model_state_dict": {"layer1.weight": [[0.06843171268701553, -0.23657432198524475, -0.00689928000792861, 0.1426069438457489, 0.03605211153626442, -0.2511051297187805, -0.08600851148366928, 0.15342482924461365, 0.21515808999538422, -0.27997902035713196], [-0.0756659209728241, 0.2406194657087326, 0.3116043508052826, 0.2559366822242737, 0.059463340789079666, 0.0441584512591362, 0.06911035627126694, 0.27437981963157654, 0.2584494352340698, -0.010426579043269157], [-0.2247866988182068, -0.17048905789852142, -0.010954629629850388, 0.273876816034317, 0.23567722737789154, 0.0682385265827179, -0.2540845274925232, 0.10157248377799988, -0.25823837518692017, 0.2281966209411621], [0.20098072290420532, 0.05706632509827614, -0.3081580400466919, 0.25403904914855957, -0.07661879062652588, -0.2984845042228699, 0.19607047736644745, 0.29637494683265686, -0.007647550664842129, -0.049989983439445496], [0.09841275960206985, 0.13157187402248383, -0.04167154058814049, 0.26844877004623413, 0.07992000877857208, 0.18012088537216187, -0.1907663196325302, 0.09123540669679642, 0.05481353774666786, 0.08828899264335632], [0.3000667691230774, 0.2061004638671875, -0.19974926114082336, -0.01271719392389059, -0.03468113765120506, 0.01649164780974388, -0.18635445833206177, 0.2868236303329468, 0.029026808217167854, -0.13183914124965668], [0.2782873511314392, 0.2617901563644409, 0.09105602651834488, 0.15131407976150513, -0.11218663305044174, -0.22759310901165009, 0.24713139235973358, 0.286543071269989, -0.08113141357898712, -0.05863333120942116], [0.07339569926261902, 0.07356347888708115, 0.16419926285743713, -0.20237956941127777, 0.23613715171813965, 0.049433231353759766, 0.2817213535308838, 0.0911218449473381, -0.2740323841571808, 0.25547313690185547], [-0.15268640220165253, 0.05718272551894188, -0.03754805773496628, -0.07724869251251221, 0.19367973506450653, 0.09738069027662277, 0.06042136996984482, -0.301819771528244, -0.21641428768634796, -0.23504386842250824], [0.21600675582885742, -0.13140568137168884, 0.025453759357333183, 0.012427304871380329, -0.3099392056465149, -0.21781817078590393, -0.09520363807678223, -0.2775830924510956, -0.053896885365247726, -0.23290736973285675], [-0.05241258442401886, 0.14892448484897614, 0.23907162249088287, 0.1064644306898117, -0.2838778793811798, 0.21917106211185455, -0.2218501716852188, 0.2823488712310791, -0.28655049204826355, 0.2938358187675476], [-0.26836884021759033, -0.06915668398141861, 0.21162855625152588, 0.20929312705993652, 0.24681690335273743, -0.007874811068177223, -0.09647730737924576, -0.30248963832855225, -0.1424715667963028, -0.2576034367084503], [-0.2637505829334259, -0.11739102005958557, 0.2365006059408188, 0.21452955901622772, 0.2544710338115692, -0.1819951832294464, 0.27251484990119934, -0.014777476899325848, 0.2570541799068451, 0.2676964998245239], [-0.03589838370680809, 0.2534373104572296, 0.18415318429470062, 0.12749138474464417, -0.007714760489761829, -0.29313895106315613, 0.1208159327507019, -0.19488954544067383, -0.13591399788856506, 0.10705002397298813], [0.227862149477005, 0.17518958449363708, -0.14826223254203796, 0.15340183675289154, -0.25672152638435364, -0.22179681062698364, -0.00029896304477006197, -0.05979037284851074, 0.22940123081207275, -0.0031401438172906637], [0.0295928455889225, -0.26291581988334656, -0.020768238231539726, -0.10007389634847641, -0.10103028267621994, -0.23090443015098572, -0.2550298869609833, 0.28401410579681396, -0.28054794669151306, -0.04406178370118141], [-0.25119295716285706, -0.240256667137146, -0.10775069892406464, -0.08468028157949448, 0.18101051449775696, -0.14444281160831451, -0.02413453347980976, 0.23809801042079926, -0.13412770628929138, 0.16831515729427338], [-0.2928220331668854, -0.009778104722499847, -0.2186611145734787, -0.06838452816009521, -0.19018083810806274, -0.04027112200856209, 0.17860040068626404, -0.16628603637218475, 0.12915515899658203, -0.2591291069984436], [-0.08925271034240723, -0.15162214636802673, 0.2447647899389267, -0.15098711848258972, -0.13540466129779816, -0.07803671061992645, 0.06591479480266571, -0.2847333252429962, -0.07280635088682175, -0.0590922087430954], [-0.17796708643436432, -0.1832304298877716, 0.2545986473560333, -0.2672427296638489, -0.2670356333255768, -0.20211797952651978, 0.2482040971517563, 0.16603030264377594, -0.05461999773979187, 0.04643099382519722]], "layer1.bias": [-0.2762104868888855, 0.05250086635351181, -0.20775867998600006, 0.24926067888736725, 0.07813797146081924, -0.25165849924087524, 0.05154670402407646, -0.25928744673728943, -0.13031105697155, 0.16054582595825195, -0.2669569253921509, 0.26894646883010864, -0.21147850155830383, 0.1105809435248375, -0.08818846195936203, 0.13322138786315918, 0.026430973783135414, -0.12748552858829498, 0.17033755779266357, -0.25270968675613403], "layer2.weight": [[-0.16745536029338837, -0.10700133442878723, -0.21883346140384674, 0.20765475928783417, 0.1092895120382309, 0.07241765409708023, -0.20167642831802368, -0.06837253272533417, -0.20509542524814606, 0.08264543116092682, -0.19930274784564972, 0.015566963702440262, -0.062243130058050156, -0.014933198690414429, -0.03372785821557045, -0.004423172678798437, 0.1983925849199295, -0.1157137081027031, 0.136614128947258, 0.10177595168352127], [0.12643012404441833, 0.0008361440850421786, -0.10573656111955643, 0.11895082890987396, -0.0900423675775528, -0.08580312132835388, 0.03922365978360176, -0.09896422177553177, 0.15266330540180206, -0.14754405617713928, -0.10782035440206528, -0.011988823302090168, -0.06995879113674164, 0.1734430193901062, 0.021268345415592194, 0.052444085478782654, -0.040438566356897354, 0.02520512416958809, 0.011539055965840816, -0.19683347642421722]], "layer2.bias": [-0.10434777289628983, -0.17066079378128052]}, "optimizer_state_dict": {"state": {"0": {"step": 2.0, "exp_avg": [[0.0023854481987655163, -4.655789598473348e-05, 0.0020952019840478897, 0.001660388894379139, 0.0017419939395040274, 0.0006197369657456875, -0.0006691481685265899, -0.00018774624913930893, 0.001335103064775467, 0.0008887002477422357], [0.0011001203674823046, 0.00161471136379987, 0.0016326215118169785, 0.0001687228213995695, 0.00357999000698328, 0.002205747179687023, 0.000386195897590369, -0.00167564838193357, 0.002991681918501854, -2.442309551042854e-06], [-0.0043243044055998325, -0.0018956693820655346, -0.00011983962031081319, 0.001089542405679822, 0.00024298261268995702, 0.004546405281871557, 0.0005916054360568523, -0.0003604825760703534, -0.004738349933177233, 0.004438186064362526], [0.0003458153223618865, -0.0040099769830703735, 0.002038110513240099, 0.0005652392283082008, 0.0024985196068882942, 0.0031617346685379744, -0.005636485759168863, -0.001215970958583057, 0.00121618015691638, -0.0011405472178012133], [-0.0026457305066287518, -0.0020968306344002485, -0.004839660599827766, 0.0008803855162113905, -0.0036478713154792786, -0.0033755654003471136, -0.0018896013498306274, -0.00020155060337856412, 0.00017130030028056353, 0.0002880666288547218], [-0.001369937788695097, -0.0005658232839778066, -0.0016566007398068905, 0.00030049384804442525, -0.0009851539507508278, -0.001614641398191452, -0.000877201440744102, -2.7261303330305964e-06, -0.0021099080331623554, 0.0008425965206697583], [0.001149533549323678, 0.005137111060321331, -0.0007791564567014575, 0.0007144624250940979, 4.3188436393393204e-05, 0.0002604893525131047, 0.00464184395968914, -0.002632106188684702, 0.000130399945192039, 0.0007068299455568194], [0.0009703026153147221, -0.0001104709372157231, 0.002329147420823574, -0.0011637588031589985, 0.001736567122861743, 0.0009721035603433847, -5.1788490964099765e-05, -0.0011129769263789058, -0.0026871012523770332, 0.0015459544956684113], [0.006583108566701412, 0.004900031257420778, 0.006066587287932634, -0.0013483494985848665, 0.008942848071455956, 0.0032045331317931414, 0.004032277036458254, -0.0007442302885465324, -0.00013546143600251526, -0.0012871678918600082], [0.000450474297394976, -0.0018992942059412599, -0.0030819487292319536, -0.0007235720986500382, 0.0005738900508731604, 0.0015564966015517712, -0.002329356037080288, -0.000836122955661267, -0.00048737553879618645, -5.8348865422885865e-05], [-0.003724530339241028, -0.001298432471230626, -0.0002726073144003749, -0.0012026989134028554, -0.003279929980635643, 0.003400621470063925, 0.003820351790636778, 0.001260775956325233, -0.006465590558946133, 0.0038818710017949343], [-0.0004966825363226235, -0.00026386420358903706, -0.0008603845490142703, 0.0001812457194318995, -0.0006185786332935095, -0.00037963251816108823, -0.0005149766802787781, 9.283058170694858e-05, 0.00011809459829237312, 0.00012833124492317438], [0.0007890143315307796, -0.0008329444099217653, 0.0010040451306849718, 0.0017449890729039907, 0.00032864819513633847, 0.0001275133981835097, 0.00036809477023780346, -0.0003326919686514884, 0.0003797158715315163, 0.0010643184650689363], [-0.0022366640623658895, -0.0017437833594158292, -0.0013421451440081, 0.0007597744697704911, -0.0004705890314653516, 0.00123382150195539, 0.0010811848333105445, -1.534928560431581e-05, -0.0010076636681333184, -0.0010792487300932407], [0.0007149751181714237, 0.00020230546942912042, 0.0008631831733509898, -0.0003331084444653243, -0.00034152274020016193, -0.000727146165445447, 0.0007467240793630481, 0.0001484301610616967, -0.0004639836261048913, 0.0006698204088024795], [0.0006404073210433125, 0.0009438702254556119, 0.001213332056067884, 0.00018138150335289538, -6.716832285746932e-05, 0.00031902972841635346, -0.0004284922615624964, -0.00019978926866315305, 0.0022249380126595497, -1.7772565115592442e-05], [-0.00013403203047346324, 0.0003119491448160261, -0.002304086461663246, -0.00010201302211498842, -0.0013463851064443588, -0.0011860360391438007, -0.0030017313547432423, 0.0008113223011605442, 0.0006082819309085608, -0.0028666029684245586], [0.0008570441277697682, -0.0003675227053463459, 0.0011221545282751322, -0.002222924493253231, -0.0017685272032395005, -0.0009895144030451775, 0.0022775055840611458, 0.0009437492117285728, -0.0003851936780847609, 7.823639316484332e-05], [-0.0013194968923926353, -0.00011376669863238931, -0.0028559500351548195, 0.003776073921471834, -0.0005596672417595983, -0.001343799289315939, -6.930694507900625e-05, 0.0007912915898486972, 0.0011449884623289108, -0.0006439986755140126], [0.0008164910832419991, -0.0004185881407465786, -0.00045090593630447984, 0.0004854658036492765, 0.0011027625296264887, -0.0008369556162506342, 0.0001934580213855952, 0.004103351850062609, -0.0020050699822604656, 1.0888366887229495e-05]], "exp_avg_sq": [[3.153817260681535e-07, 1.2225957746192506e-10, 2.433221766295901e-07, 1.5278439491339668e-07, 1.6810324154903356e-07, 2.125898390659131e-08, 2.4809466481201525e-08, 1.9521113614473506e-09, 9.878390727635633e-08, 4.374461326506207e-08], [6.705180055632809e-08, 1.4462955277849687e-07, 1.4787958946271829e-07, 1.590045761723502e-09, 7.100059065123787e-07, 2.6964568178300397e-07, 8.27236590339453e-09, 1.5544657117061433e-07, 4.963117703482567e-07, 1.0886766748513521e-12], [1.0362773537053727e-06, 1.9951286844843708e-07, 8.375041771202518e-10, 6.600416213586868e-08, 3.3711757829735234e-09, 1.145321562034951e-06, 1.9328190603573603e-08, 7.177059835328237e-09, 1.244795157617773e-06, 1.0924119351329864e-06], [6.6099823392562485e-09, 8.904971764422953e-07, 2.3030584372918383e-07, 1.7650499728461e-08, 3.456044055383245e-07, 5.539201310966746e-07, 1.7592806216271129e-06, 8.227713266251158e-08, 8.19743206648127e-08, 7.224504372516094e-08], [3.878597567563702e-07, 2.435142505419208e-07, 1.2971192973054713e-06, 4.29230908594036e-08, 7.369690138148144e-07, 6.308095521490031e-07, 1.9776027215812064e-07, 2.2713380065653155e-09, 1.6238307365412652e-09, 4.619654436766041e-09], [1.0386872872913955e-07, 1.7717479039447426e-08, 1.5190013868959795e-07, 4.9983581718038295e-09, 5.371197175918496e-08, 1.4430244732466235e-07, 4.2596266069949706e-08, 5.163280285096217e-13, 2.4635761519675725e-07, 3.929567427007896e-08], [7.340673846556456e-08, 1.4623508377553662e-06, 3.358341160719647e-08, 2.8375506389011207e-08, 1.100200625048231e-10, 3.749070387470965e-09, 1.1940769581997301e-06, 3.832981008144998e-07, 9.392251421047604e-10, 2.783353991731019e-08], [5.220453402898784e-08, 6.743611780102299e-10, 3.006830979757069e-07, 7.51399440446221e-08, 1.675449254889827e-07, 5.239852995941874e-08, 1.5251577778485625e-10, 6.863277235424903e-08, 4.004399443147122e-07, 1.327147884921942e-07], [2.400026460236404e-06, 1.3297602663442376e-06, 2.0382008187880274e-06, 1.0077752676806995e-07, 4.4310413613857236e-06, 5.688940518666641e-07, 9.004206162899209e-07, 3.0737929535007424e-08, 1.0341789646872712e-09, 9.184904570247454e-08], [1.1248639353311773e-08, 1.9989926158814342e-07, 5.261945830170589e-07, 2.905808571540547e-08, 1.8234977972042543e-08, 1.3408535437520186e-07, 3.005042685799708e-07, 3.8775830546455836e-08, 1.3166548740173312e-08, 1.8877790997073873e-10], [7.682623959226476e-07, 9.333638928410437e-08, 4.1040300047257006e-09, 8.004668927696912e-08, 5.969985750198248e-07, 6.411341360035294e-07, 8.083565603556053e-07, 8.865173128924653e-08, 2.3172319743025582e-06, 8.35592459225154e-07], [1.3693089329080976e-08, 3.864076170145836e-09, 4.102526673932516e-08, 1.8141859126075133e-09, 2.113610264586896e-08, 7.970717419425455e-09, 1.4726213137805644e-08, 4.76097439250367e-10, 7.758753084452508e-10, 9.103072740046514e-10], [3.447994245675545e-08, 3.84506719797173e-08, 5.594152696630772e-08, 1.6888868969999749e-07, 6.048497702693112e-09, 8.981175803057795e-10, 7.532450219116527e-09, 6.1324225697489965e-09, 8.057769562697104e-09, 6.28970866500822e-08], [2.7697944915416883e-07, 1.6838771443872247e-07, 9.979333270848656e-08, 3.1934447974890645e-08, 1.2250360725829523e-08, 8.435513620952406e-08, 6.472060221085485e-08, 1.5255423660431866e-11, 5.6265086811890797e-08, 6.452124523548264e-08], [2.830139678167143e-08, 2.309230584529587e-09, 4.118482621606745e-08, 6.160735921412197e-09, 6.4641119124075885e-09, 2.9341340024302554e-08, 3.0944839579660766e-08, 1.2202612253986445e-09, 1.1900944230092136e-08, 2.486172512305984e-08], [2.2671876820368198e-08, 4.927867891524329e-08, 8.152650821102725e-08, 1.8173079707750617e-09, 2.498432849495913e-10, 5.653912449332665e-09, 1.0155806862144345e-08, 2.229302520362353e-09, 2.738869966378843e-07, 1.846067396171769e-11], [1.0160139396475643e-09, 5.4012438965855836e-09, 2.9400462153716944e-07, 5.748837517138838e-10, 1.0061248190140759e-07, 7.789454059548007e-08, 4.989240096620051e-07, 3.640033341412163e-08, 2.0490290353336604e-08, 4.5558198280559736e-07], [4.064008862769697e-08, 7.480979391516485e-09, 6.962645926478217e-08, 2.737293698373833e-07, 1.734406254172427e-07, 5.422637983087952e-08, 2.873470918984822e-07, 4.9329642592965683e-08, 8.195465639460053e-09, 3.423814842751227e-10], [9.636895725861905e-08, 7.160322335053593e-10, 4.518838636613509e-07, 7.894193458923837e-07, 1.7318519951459166e-08, 9.993716076905912e-08, 2.7197483154495217e-10, 3.476357335330249e-08, 7.259755818722624e-08, 2.301657175962646e-08], [3.68711852161141e-08, 9.73263603043506e-09, 1.1260263832468809e-08, 1.303196572877141e-08, 6.723304579736578e-08, 3.8814366831729785e-08, 2.090925654840703e-09, 9.328353485216212e-07, 2.227361619588919e-07, 1.3015220845513653e-11]]}, "1": {"step": 2.0, "exp_avg": [-0.0014302085619419813, 0.003962294198572636, 0.007511657662689686, -0.009331892244517803, -2.479619433870539e-05, 0.00044313911348581314, 0.005407579243183136, 0.0037999204359948635, 0.003386858617886901, 0.0029390454292297363, 0.004672267008572817, -3.931418541469611e-05, 0.0023004570975899696, -0.0010150009766221046, 0.0001747553760651499, -0.0010581446113064885, -0.004077631048858166, 0.0021168552339076996, -0.0058614592999219894, 0.001475754426792264], "exp_avg_sq": [1.132484399590794e-07, 8.710991323823691e-07, 3.1299607599066803e-06, 4.828334112971788e-06, 6.272120323114194e-11, 1.0871276323598522e-08, 1.6225383205892285e-06, 8.011221552806091e-07, 6.360824045259506e-07, 4.793230345967459e-07, 1.2117659480281873e-06, 1.3618815797311612e-10, 2.939218290975987e-07, 5.7197205194370326e-08, 1.7390905382441701e-09, 6.193735657689103e-08, 9.21451373869786e-07, 2.487106485205004e-07, 1.9029296254302608e-06, 1.2089869017017918e-07]}, "2": {"step": 2.0, "exp_avg": [[-0.0016285176388919353, -0.016065001487731934, -0.005545696243643761, -0.014731619507074356, -0.008443949744105339, -0.0008789572166278958, -0.01300840638577938, -0.012503299862146378, -0.010249113664031029, -0.006890314631164074, -0.009399840608239174, -0.02288007363677025, -0.008790452033281326, -0.01755157858133316, -0.007159619592130184, -0.0039544617757201195, -0.0050705247558653355, -0.002616006415337324, -0.015868622809648514, -0.007740403991192579], [0.003988486714661121, -0.0021417781244963408, -0.01187921967357397, -0.020767152309417725, -0.0034638498909771442, 0.002798551693558693, -0.009364394471049309, -0.003187475260347128, -0.003326898906379938, -0.008651915937662125, -0.0082465261220932, -0.010885806754231453, -0.00023370231792796403, -0.006382529158145189, -0.005506882444024086, -0.02087489515542984, -0.018134936690330505, -0.014406057074666023, -0.005511935334652662, -0.004144035279750824]], "exp_avg_sq": [[1.4766885669814656e-07, 1.43237102747662e-05, 1.7094178019760875e-06, 1.203922693093773e-05, 3.954864041588735e-06, 4.297827160826273e-08, 9.392586434842087e-06, 8.6730215116404e-06, 5.828351277159527e-06, 2.6384695956949145e-06, 4.906015419692267e-06, 2.90102070721332e-05, 4.289798653189791e-06, 1.707453338894993e-05, 2.8481367735366803e-06, 8.711811005923664e-07, 1.4276067759055877e-06, 3.813321427514893e-07, 1.3953491361462511e-05, 3.320784799143439e-06], [8.807391509435547e-07, 2.576923350261495e-07, 7.826574801583774e-06, 2.390496592852287e-05, 6.708496584906243e-07, 4.3270281935292587e-07, 4.865741630055709e-06, 5.653845391861978e-07, 6.137782406767656e-07, 4.158022420597263e-06, 3.775200639211107e-06, 6.580290573765524e-06, 4.072050696635188e-09, 2.2597828319703694e-06, 1.6824785689095734e-06, 2.414319351373706e-05, 1.8230144632980227e-05, 1.149630406871438e-05, 1.686948849055625e-06, 9.535688150208443e-07]]}, "3": {"step": 2.0, "exp_avg": [-0.05568687245249748, -0.046389393508434296], "exp_avg_sq": [0.00017193850362673402, 0.00011932328197872266]}}, "param_groups": [{"lr": 0.001, "betas": [0.9, 0.999], "eps": 1e-08, "weight_decay": 0, "amsgrad": false, "maximize": false, "foreach": null, "capturable": false, "differentiable": false, "fused": null, "params": [0, 1, 2, 3]}]}, "epoch": 2, "loss": 1.0939372777938843}