{"torch_version": "2.0.1+cpu", "model_state_dict": {"layer1.weight": [[0.0654548853635788, -0.23589904606342316, -0.009888053871691227, 0.13964368402957916, 0.03308719024062157, -0.2541157305240631, -0.0830562561750412, 0.15617945790290833, 0.21215079724788666, -0.28297117352485657], [-0.07866170257329941, 0.23763352632522583, 0.30861955881118774, 0.25301632285118103, 0.056466709822416306, 0.041165437549352646, 0.06612333655357361, 0.2773813009262085, 0.25546059012413025, -0.007929862476885319], [-0.22179290652275085, -0.16751044988632202, -0.008711555041372776, 0.2709108293056488, 0.23302917182445526, 0.06524375081062317, -0.2571052312850952, 0.10459179431200027, -0.2552483379840851, 0.22520877420902252], [0.19796207547187805, 0.06006547808647156, -0.3111475110054016, 0.25101882219314575, -0.07961985468864441, -0.30147919058799744, 0.19907024502754211, 0.299331396818161, -0.010640015825629234, -0.04701366648077965], [0.10140758752822876, 0.13456986844539642, -0.038672275841236115, 0.26544803380966187, 0.0829189196228981, 0.1831224113702774, -0.1877676546573639, 0.09412891417741776, 0.05180802196264267, 0.08533559739589691], [0.30304768681526184, 0.20902371406555176, -0.19675111770629883, -0.015689445659518242, -0.031694427132606506, 0.019477948546409607, -0.1834835708141327, 0.2885012626647949, 0.03197915107011795, -0.13483738899230957], [0.2753293216228485, 0.25879913568496704, 0.09401798248291016, 0.14830605685710907, -0.11066024750471115, -0.2306116819381714, 0.2441454529762268, 0.28954747319221497, -0.081972137093544, -0.06163806840777397], [0.07042020559310913, 0.07625166326761246, 0.16124409437179565, -0.19947102665901184, 0.23319591581821442, 0.0464860275387764, 0.2833895683288574, 0.09410727024078369, -0.2710379362106323, 0.2524951994419098], [-0.1556852161884308, 0.054185688495635986, -0.040546875447034836, -0.07425186038017273, 0.1906883269548416, 0.094383105635643, 0.057417601346969604, -0.2989046573638916, -0.21374867856502533, -0.23204904794692993], [0.21311604976654053, -0.1283920854330063, 0.02846345491707325, 0.015437327325344086, -0.3128741979598999, -0.2207571566104889, -0.09223272651433945, -0.2745707631111145, -0.05153673514723778, -0.2349673956632614], [-0.04941637068986893, 0.15180543065071106, 0.24205656349658966, 0.10947136580944061, -0.2808936536312103, 0.21621063351631165, -0.22485360503196716, 0.2793867588043213, -0.283570259809494, 0.29083964228630066], [-0.26538896560668945, -0.06617660075426102, 0.21462120115756989, 0.20627287030220032, 0.24983526766300201, -0.004865946713835001, -0.09349945932626724, -0.3055041432380676, -0.14543074369430542, -0.2606149911880493], [-0.2667270600795746, -0.11440528929233551, 0.23351944983005524, 0.21155419945716858, 0.25190573930740356, -0.18500809371471405, 0.26952284574508667, -0.011820388026535511, 0.254079669713974, 0.2647193670272827], [-0.032897304743528366, 0.2564369738101959, 0.18714962899684906, 0.12448436766862869, -0.004706877283751965, -0.2961333692073822, 0.11781482398509979, -0.19209109246730804, -0.1329190582036972, 0.1100471019744873], [0.2248605638742447, 0.17238885164260864, -0.15127551555633545, 0.15637896955013275, -0.25372666120529175, -0.21881359815597534, -0.0032805749215185642, -0.06278852373361588, 0.23241332173347473, -0.006134944502264261], [0.02658013626933098, -0.2659238278865814, -0.023767517879605293, -0.10309453308582306, -0.0980299711227417, -0.23387712240219116, -0.25202134251594543, 0.28693026304244995, -0.2835542857646942, -0.04114365950226784], [-0.24839939177036285, -0.24323388934135437, -0.10475121438503265, -0.0816599503159523, 0.18399176001548767, -0.14144311845302582, -0.021134255453944206, 0.2350870817899704, -0.1371259242296219, 0.1713050901889801], [-0.295830100774765, -0.006783963646739721, -0.22166745364665985, -0.06538533419370651, -0.18719208240509033, -0.03728228062391281, 0.17560337483882904, -0.16928909718990326, 0.1321752965450287, -0.26212382316589355], [-0.08624984323978424, -0.148703932762146, 0.24775199592113495, -0.1539893001317978, -0.13239601254463196, -0.07503771781921387, 0.06881462037563324, -0.2877157926559448, -0.07580220699310303, -0.056108422577381134], [-0.1809515655040741, -0.18023160099983215, 0.2575559616088867, -0.2701006531715393, -0.2700485587120056, -0.1992103010416031, 0.24531908333301544, 0.1630483865737915, -0.05163714289665222, 0.045404329895973206]], "layer1.bias": [-0.27320098876953125, 0.049516886472702026, -0.21074466407299042, 0.2522502541542053, 0.08076580613851547, -0.2543991804122925, 0.04857710376381874, -0.26226428151130676, -0.13330741226673126, 0.15754160284996033, -0.2699245810508728, 0.27160611748695374, -0.21445009112358093, 0.11355925351381302, -0.09087537974119186, 0.13622838258743286, 0.029423927888274193, -0.13046856224536896, 0.17333722114562988, -0.255644291639328], "layer2.weight": [[-0.16450414061546326, -0.10402001440525055, -0.21586492657661438, 0.21063941717147827, 0.11227823793888092, 0.07537371665239334, -0.19869619607925415, -0.06538747251033783, -0.20211152732372284, 0.08561486750841141, -0.1963254064321518, 0.018560687080025673, -0.05926365405321121, -0.011940895579755306, -0.0307565126568079, -0.0014792470028623939, 0.20136906206607819, -0.11277060955762863, 0.1396084427833557, 0.10476849228143692], [0.12342909723520279, 0.0037074615247547626, -0.10274894535541534, 0.12194319814443588, -0.08711375296115875, -0.0888192430138588, 0.042207151651382446, -0.09600508958101273, 0.15565288066864014, -0.14456988871097565, -0.10484032332897186, -0.009011582471430302, -0.0701197013258934, 0.1764289289712906, 0.024253612384200096, 0.0554397888481617, -0.037446726113557816, 0.028202246874570847, 0.014518199488520622, -0.19385556876659393]], "layer2.bias": [-0.1013583242893219, -0.16767123341560364]}, "optimizer_state_dict": {"state": {"0": {"step": 5.0, "exp_avg": [[0.004755866713821888, 4.963831452187151e-05, 0.004330670461058617, 0.003201692132279277, 0.0033776601776480675, 0.0014196244301274419, -0.0012618649052456021, -0.0002748351253103465, 0.0030360359232872725, 0.0018581708427518606], [0.002332006348297, 0.0033096643164753914, 0.003334727371111512, 0.000297349615721032, 0.0076141650788486, 0.004628786351531744, 0.0007943382952362299, -0.0036342579405754805, 0.00619050208479166, -2.659502933965996e-05], [-0.009099996648728848, -0.0038013882003724575, -9.89542095339857e-05, 0.0021134307608008385, 0.00030331494053825736, 0.009601730853319168, 0.0014921340625733137, -0.0008822056697681546, -0.009842628613114357, 0.009153421968221664], [0.0009524829220026731, -0.008612490259110928, 0.004224578384310007, 0.001515633543021977, 0.005407263059169054, 0.006675397977232933, -0.01213686540722847, -0.002303813584148884, 0.0025464287027716637, -0.002272755838930607], [-0.005588683299720287, -0.0044822124764323235, -0.010400152765214443, 0.001904969336465001, -0.007828200235962868, -0.007320977747440338, -0.004051367286592722, -0.0003380000125616789, 0.00037866129423491657, 0.0005422430112957954], [-0.0027706408873200417, -0.0010193540947511792, -0.0035408686380833387, 0.0005944282747805119, -0.0020264913327991962, -0.0033149407245218754, -0.0014636708656325936, -0.00041620287811383605, -0.004004238173365593, 0.001801428385078907], [0.002183522330597043, 0.01069705467671156, -0.0015010701026767492, 0.0017369624692946672, -0.00014454511983785778, 0.0006418583216145635, 0.009501727297902107, -0.0057789916172623634, 2.342036896152422e-05, 0.0017175240209326148], [0.0019170062150806189, -0.00015775504289194942, 0.004397064447402954, -0.0020173455122858286, 0.00316146039403975, 0.0018028217600658536, 0.00016443833010271192, -0.0022654023487120867, -0.005754540208727121, 0.0030959227588027716], [0.014119137078523636, 0.010431718081235886, 0.013011925853788853, -0.002876398153603077, 0.018646549433469772, 0.006842787377536297, 0.008857285603880882, -0.0013044674415141344, -0.0007437968160957098, -0.0027232072316110134], [0.0018478030106052756, -0.00459018349647522, -0.007044456899166107, -0.0018344183918088675, 0.00209428695961833, 0.002853353274986148, -0.004568686708807945, -0.0020689726807177067, -0.0004928389680571854, 0.0008402398088946939], [-0.007886480540037155, -0.002216808497905731, -0.0008546099998056889, -0.002688844222575426, -0.006702132523059845, 0.006479842588305473, 0.008494626730680466, 0.0026240702718496323, -0.012950040400028229, 0.008403259329497814], [-0.00099970493465662, -0.0005315229645930231, -0.0018029757775366306, 0.00045208330266177654, -0.001494359690696001, -0.0008532590582035482, -0.0010308729251846671, 0.00021620947518385947, 0.00022530979185830802, 0.0002929240872617811], [0.001575757865794003, -0.0017064015846699476, 0.0020293716806918383, 0.0034657816868275404, 0.0003770619514398277, 0.0003672373713925481, 0.0007856945740059018, -0.000633067567832768, 0.0007854596478864551, 0.0021270657889544964], [-0.0048426613211631775, -0.0037535822484642267, -0.002852363046258688, 0.001690687844529748, -0.0010522871743887663, 0.0026022768579423428, 0.002341136336326599, -8.643440378364176e-05, -0.002130032517015934, -0.002298969542607665], [0.0015515328850597143, 0.0002988985215779394, 0.0019934021402150393, -0.0006649215356446803, -0.000722238386515528, -0.0014783398946747184, 0.0015101819299161434, 0.0003175762831233442, -0.0010626913281157613, 0.0014151539653539658], [0.0014734872383996844, 0.0021110496018081903, 0.0026072626933455467, 0.0004796349676325917, -0.00014509564789477736, 0.000629210437182337, -0.0009617744362913072, -0.0003489566734060645, 0.004933513700962067, -7.275713869603351e-05], [-0.0001971287274500355, 0.0006222972879186273, -0.004956786520779133, -0.00027307510026730597, -0.0027207783423364162, -0.0025526799727231264, -0.006477115210145712, 0.0018467955524101853, 0.0013008948881179094, -0.005951027385890484], [0.001919813104905188, -0.0007737688720226288, 0.0024855835363268852, -0.0047790780663490295, -0.0036580590531229973, -0.0020438481587916613, 0.0048512667417526245, 0.002065347507596016, -0.001030603307299316, 0.0002507947210688144], [-0.002918908139690757, -0.00020627869525924325, -0.0058562662452459335, 0.008225402794778347, -0.0013277477119117975, -0.002872094511985779, -0.00015296312631107867, 0.0016159411752596498, 0.002419876866042614, -0.0013650436885654926], [0.001673986786045134, -0.0010560373775660992, -0.0008598052663728595, 0.0008067329181358218, 0.002920622704550624, -0.0014611282385885715, 0.00032074475893750787, 0.008301697671413422, -0.004067075904458761, 2.4787977963569574e-05]], "exp_avg_sq": [[6.914431764926121e-07, 6.820469744539537e-10, 5.649272907248815e-07, 3.1873014449956827e-07, 3.5410116083767207e-07, 5.922871437746835e-08, 5.0196209855357665e-08, 3.1097697750226416e-09, 2.713511833007942e-07, 1.0368172098651485e-07], [1.6252637635716383e-07, 3.306964799776324e-07, 3.361107587807055e-07, 2.8693936116042096e-09, 1.7309647546426277e-06, 6.421324769689818e-07, 1.9027877939947757e-08, 3.924232601093536e-07, 1.1533666111063212e-06, 2.6528852031804107e-11], [2.4798455342534e-06, 4.3963277107650356e-07, 9.492293617796577e-10, 1.3771025919595559e-07, 4.2476702155624935e-09, 2.758022219495615e-06, 6.48870397412793e-08, 2.2714678138413547e-08, 2.9123370950401295e-06, 2.5243446089007193e-06], [2.646671859451999e-08, 2.2090798665885814e-06, 5.368924007598253e-07, 6.69403874553609e-08, 8.692682627042814e-07, 1.333172122031101e-06, 4.384176918392768e-06, 1.6546884751278412e-07, 1.9448432908575342e-07, 1.5752689819237276e-07], [9.343143574369606e-07, 5.990787599330361e-07, 3.2208436095970683e-06, 1.0786269655227443e-07, 1.8253721236760612e-06, 1.5924497347441502e-06, 4.890334253104811e-07, 3.8450123085453924e-09, 4.242286077982271e-09, 9.195967543007555e-09], [2.339598523803943e-07, 3.405012449775313e-08, 3.741577074833913e-07, 1.087954615286435e-08, 1.242740808038434e-07, 3.326716182527889e-07, 7.519820144352707e-08, 9.541427203885178e-09, 5.062212267148425e-07, 9.683968471563276e-08], [1.4784022539515718e-07, 3.4341574064455926e-06, 6.889499104545393e-08, 8.917539418007436e-08, 1.5066790037820965e-09, 1.2014468531162947e-08, 2.7212402073928388e-06, 9.888401564239757e-07, 1.182346553996183e-09, 8.746185642394266e-08], [1.1370050856385205e-07, 1.5984175094629904e-09, 6.258008511395019e-07, 1.4430217731842276e-07, 3.2661705517966766e-07, 1.0661166527370369e-07, 9.015321822403166e-09, 1.565273635151243e-07, 9.84695816441672e-07, 2.9167810566832486e-07], [5.939335096627474e-06, 3.249030214647064e-06, 5.04427816849784e-06, 2.467341175815818e-07, 1.044593136612093e-05, 1.3963893934487714e-06, 2.3232396415551193e-06, 5.621602028327288e-08, 2.143323385439544e-08, 2.2165414748087642e-07], [1.0549001672188751e-07, 6.193057515702094e-07, 1.4650279354100348e-06, 9.905477327265544e-08, 1.3284760314036248e-07, 2.5403895165254653e-07, 6.36022207345377e-07, 1.2587798892127466e-07, 1.3913759921990732e-08, 3.201355269766282e-08], [1.862826934484474e-06, 1.887871690087195e-07, 2.2879268257725016e-08, 2.1319868892533123e-07, 1.356152552034473e-06, 1.3412607131613186e-06, 2.1290586573741166e-06, 2.082461776353739e-07, 5.151186996954493e-06, 2.0947359189449344e-06], [3.03634983822576e-08, 8.58036752759972e-09, 9.746804607857484e-08, 5.958118443061267e-09, 6.524165030441509e-08, 2.1470736299988857e-08, 3.2349607437254235e-08, 1.3714103186401871e-09, 1.5771194350477913e-09, 2.5242454793072966e-09], [7.595134121629599e-08, 8.79965469380295e-08, 1.2492529322116752e-07, 3.673245316804241e-07, 8.02407384981052e-09, 3.957647987107293e-09, 1.842389352191276e-08, 1.2566170326522297e-08, 1.8608016461030275e-08, 1.3780092444903858e-07], [6.97050722919812e-07, 4.1937261130442494e-07, 2.4296775791299297e-07, 8.445844912330358e-08, 3.268609205520079e-08, 2.0265930800178467e-07, 1.6290817939079716e-07, 2.497458351236048e-10, 1.3568207180014724e-07, 1.5775198392020684e-07], [7.151047043407743e-08, 3.3609341976159612e-09, 1.166760199566852e-07, 1.347636313653311e-08, 1.5596032909570567e-08, 6.615876202431537e-08, 6.917706940612334e-08, 3.0066271694551006e-09, 3.3202294247303143e-08, 5.990072793338186e-08], [6.378188999178747e-08, 1.315505926413607e-07, 2.0243061271685292e-07, 6.701801336106428e-09, 6.260340024155653e-10, 1.212390010607578e-08, 2.7284617232226083e-08, 3.9775658322582785e-09, 7.196769047368434e-07, 1.6428622351405409e-10], [1.4651226898365621e-09, 1.1809952127350698e-08, 7.314081358344993e-07, 2.1729311683316155e-09, 2.2454869963439705e-07, 1.9396753714318038e-07, 1.2480165878514526e-06, 1.0035400777042014e-07, 5.046326378987942e-08, 1.0648781199051882e-06], [1.0881976919563385e-07, 1.79043908588028e-08, 1.824793258720092e-07, 6.80409982578567e-07, 4.028099738206947e-07, 1.254693273722296e-07, 7.024725050541747e-07, 1.2664088444580557e-07, 3.094998035635399e-08, 1.8704864324092796e-09], [2.514556740607077e-07, 1.4877383769373864e-09, 1.0343677558921627e-06, 2.00719705389929e-06, 5.176181616661779e-08, 2.465472448420769e-07, 7.49297401902993e-10, 7.874163543419854e-08, 1.7588820355740609e-07, 5.5601255155579565e-08], [8.509178428539599e-08, 3.28751923461823e-08, 2.318568448345104e-08, 2.3220831479875415e-08, 2.4980039370348095e-07, 7.129177248543783e-08, 3.5010614407582352e-09, 2.0950026282662293e-06, 5.022477012062154e-07, 5.995065555097767e-11]]}, "1": {"step": 5.0, "exp_avg": [-0.0032549872994422913, 0.008072656579315662, 0.015399914234876633, -0.019350901246070862, -0.00019527484255377203, 0.0006386663881130517, 0.010564576834440231, 0.0075429100543260574, 0.007224256172776222, 0.00654502771794796, 0.009038789197802544, -0.00029845497920177877, 0.004524813964962959, -0.002033328404650092, 0.00022705650189891458, -0.002353683114051819, -0.008552724495530128, 0.00430215522646904, -0.012633131816983223, 0.0026754012797027826], "exp_avg_sq": [3.1169128078545327e-07, 1.971389337995788e-06, 7.159226697694976e-06, 1.126319602917647e-05, 1.3583145719309186e-09, 1.724223963606164e-08, 3.418584128667135e-06, 1.747285978126456e-06, 1.5560906376776984e-06, 1.2723684221782605e-06, 2.545585402913275e-06, 3.1550571044647313e-09, 6.278016257965646e-07, 1.2583973330038134e-07, 2.2569641711100985e-09, 1.637151427757999e-07, 2.1927041871094843e-06, 5.606486297438096e-07, 4.74829812446842e-06, 2.3032522733501537e-07]}, "2": {"step": 5.0, "exp_avg": [[-0.0030513410456478596, -0.03246540203690529, -0.010823853313922882, -0.030064549297094345, -0.017479095607995987, -0.001662169466726482, -0.026202863082289696, -0.025562390685081482, -0.02087506279349327, -0.013476620428264141, -0.018778963014483452, -0.048132896423339844, -0.01767377369105816, -0.03673790395259857, -0.014072686433792114, -0.0072882818058133125, -0.01010347343981266, -0.004814959596842527, -0.03345343843102455, -0.016215842217206955], [0.008631414733827114, -0.003493324853479862, -0.02448315918445587, -0.04348795488476753, -0.006222772412002087, 0.00660389568656683, -0.019047904759645462, -0.00608291057869792, -0.006903338246047497, -0.017136601731181145, -0.01660812459886074, -0.02174784243106842, 0.000358078395947814, -0.013082895427942276, -0.011267310939729214, -0.04424029588699341, -0.037903353571891785, -0.0306963212788105, -0.011075397953391075, -0.00829498004168272]], "exp_avg_sq": [[2.9173912707847194e-07, 3.197653131792322e-05, 3.6027213354827836e-06, 2.7329886506777257e-05, 9.194480298901908e-06, 8.623750602509972e-08, 2.0855888578807935e-05, 1.974226688616909e-05, 1.3183911505620927e-05, 5.580542165262159e-06, 1.0744523024186492e-05, 6.93831971148029e-05, 9.493182005826384e-06, 4.048071423312649e-05, 6.07267475061235e-06, 1.6796567479104851e-06, 3.11334474645264e-06, 7.335314649026259e-07, 3.3496893593110144e-05, 7.885056220402475e-06], [2.2148342395666987e-06, 4.1849830267892685e-07, 1.8063759853248484e-05, 5.6713550293352455e-05, 1.2420307484717341e-06, 1.2772645732184174e-06, 1.098326720239129e-05, 1.1492314797578729e-06, 1.432872295481502e-06, 8.976823664852418e-06, 8.378060556424316e-06, 1.4408491551876068e-05, 1.732555787725687e-08, 5.167197741684504e-06, 3.834718881989829e-06, 5.8494195400271565e-05, 4.310767326387577e-05, 2.8119779017288238e-05, 3.729019226739183e-06, 2.09470022127789e-06]]}, "3": {"step": 5.0, "exp_avg": [-0.11543148756027222, -0.09621867537498474], "exp_avg_sq": [0.0004008218238595873, 0.0002784338721539825]}}, "param_groups": [{"lr": 0.001, "betas": [0.9, 0.999], "eps": 1e-08, "weight_decay": 0, "amsgrad": false, "maximize": false, "foreach": null, "capturable": false, "differentiable": false, "fused": null, "params": [0, 1, 2, 3]}]}, "epoch": 5, "loss": 1.0818068981170654}