{"torch_version": "2.0.1+cpu", "model_state_dict": {"layer1.weight": [[0.06743292510509491, -0.23560284078121185, -0.00789797492325306, 0.1416080743074417, 0.03505265712738037, -0.2521056830883026, -0.08500935882329941, 0.15442486107349396, 0.21415922045707703, -0.2809787392616272], [-0.07666522264480591, 0.2396218329668045, 0.3106069266796112, 0.25494903326034546, 0.0584639348089695, 0.04315962642431259, 0.06811254471540451, 0.27538007497787476, 0.2574513554573059, -0.009663982316851616], [-0.22378773987293243, -0.16949261724948883, -0.010044485330581665, 0.2728824317455292, 0.23472575843334198, 0.06723941117525101, -0.25508812069892883, 0.1025758683681488, -0.25724005699157715, 0.22719869017601013], [0.19997787475585938, 0.05806618556380272, -0.30915629863739014, 0.2530357539653778, -0.0776190534234047, -0.29948359727859497, 0.1970704346895218, 0.2973680794239044, -0.008646352216601372, -0.04899393767118454], [0.09941188991069794, 0.13257156312465668, -0.04067167267203331, 0.2674487829208374, 0.08091980218887329, 0.18112117052078247, -0.18976657092571259, 0.09222063422203064, 0.05381257086992264, 0.08729635924100876], [0.30106741189956665, 0.20710121095180511, -0.19874869287014008, -0.013717658817768097, -0.03368038311600685, 0.017492201179265976, -0.18535402417182922, 0.2871818244457245, 0.030027616769075394, -0.13283972442150116], [0.27729517221450806, 0.2607918977737427, 0.09204518795013428, 0.15031304955482483, -0.11186016350984573, -0.22859565913677216, 0.24613431096076965, 0.2875436544418335, -0.08161637932062149, -0.05963345617055893], [0.07239750772714615, 0.07456617057323456, 0.1632005274295807, -0.20138217508792877, 0.23514164984226227, 0.048435043543577194, 0.28270405530929565, 0.09212104976177216, -0.2730344235897064, 0.2544769048690796], [-0.1536862552165985, 0.05618295073509216, -0.03854789957404137, -0.07625004649162292, 0.1926805078983307, 0.09638131409883499, 0.05942148715257645, -0.30082276463508606, -0.21544040739536285, -0.23404546082019806], [0.21506276726722717, -0.13040316104888916, 0.026456007733941078, 0.013427823781967163, -0.3109036982059479, -0.21880218386650085, -0.09421076625585556, -0.276581346988678, -0.05303619056940079, -0.233439102768898], [-0.05141277238726616, 0.14992478489875793, 0.2400752305984497, 0.10746526718139648, -0.2828808128833771, 0.21817269921302795, -0.22284989058971405, 0.28135889768600464, -0.28555187582969666, 0.2928376793861389], [-0.2673720717430115, -0.06815970689058304, 0.21262742578983307, 0.20828960835933685, 0.24782009422779083, -0.0068732057698071, -0.0954810231924057, -0.3034924864768982, -0.14346514642238617, -0.2586057186126709], [-0.26475033164024353, -0.11639207601547241, 0.23550337553024292, 0.2135317027568817, 0.25348755717277527, -0.1829986423254013, 0.27152031660079956, -0.013778317719697952, 0.2560670077800751, 0.26670005917549133], [-0.03489819914102554, 0.25443723797798157, 0.1851525753736496, 0.12649014592170715, -0.006713405251502991, -0.29413801431655884, 0.11981573700904846, -0.19396647810935974, -0.13491490483283997, 0.10804955661296844], [0.2268618941307068, 0.1742178201675415, -0.14926455914974213, 0.1543981432914734, -0.2557225525379181, -0.22079966962337494, -0.0012959380401298404, -0.060790054500103, 0.23040339350700378, -0.004139214754104614], [0.028590640053153038, -0.2639172375202179, -0.021768126636743546, -0.10107731074094772, -0.1000303328037262, -0.23190000653266907, -0.25402843952178955, 0.28500163555145264, -0.2815490663051605, -0.04309411346912384], [-0.25022396445274353, -0.24125327169895172, -0.10675082355737686, -0.08367692679166794, 0.1820073127746582, -0.14344283938407898, -0.02313448116183281, 0.2370961755514145, -0.13512752950191498, 0.1693134903907776], [-0.29382357001304626, -0.008779440075159073, -0.21966184675693512, -0.06738454848527908, -0.18918272852897644, -0.039273735135793686, 0.1776008903980255, -0.16728684306144714, 0.13015836477279663, -0.26012587547302246], [-0.08825334906578064, -0.15062707662582397, 0.2457624077796936, -0.15198735892772675, -0.13440434634685516, -0.07703634351491928, 0.06689602136611938, -0.28572961688041687, -0.07380662113428116, -0.058097656816244125], [-0.1789686530828476, -0.18223465979099274, 0.25559836626052856, -0.26824459433555603, -0.2680376470088959, -0.2011188119649887, 0.24721655249595642, 0.16503095626831055, -0.05362069606781006, 0.04641171917319298]], "layer1.bias": [-0.2752102017402649, 0.05150356516242027, -0.20875631272792816, 0.2502589523792267, 0.07897089421749115, -0.2526589334011078, 0.05055266618728638, -0.2602848410606384, -0.1313091367483139, 0.15954437851905823, -0.26795363426208496, 0.26979881525039673, -0.2124745100736618, 0.11157736927270889, -0.08914531767368317, 0.13422267138957977, 0.02742983214557171, -0.12848278880119324, 0.17133748531341553, -0.2537063956260681], "layer2.weight": [[-0.16646316647529602, -0.10600443929433823, -0.21783863008022308, 0.20865224301815033, 0.11028749495744705, 0.07341093569993973, -0.20067967474460602, -0.0673750713467598, -0.20409813523292542, 0.0836404487490654, -0.19830647110939026, 0.01656590960919857, -0.0612465962767601, -0.013934486545622349, -0.032732538878917694, -0.0034318333491683006, 0.1993887573480606, -0.1147226020693779, 0.1376131922006607, 0.10277470201253891], [0.1254299134016037, 0.0018160738982260227, -0.10473867505788803, 0.11994951963424683, -0.0890544131398201, -0.0868060514330864, 0.040220946073532104, -0.09797095507383347, 0.15366142988204956, -0.146548330783844, -0.10682372748851776, -0.010992643423378468, -0.0695282518863678, 0.17444062232971191, 0.022265810519456863, 0.05344334989786148, -0.03943995386362076, 0.026204627007246017, 0.012535477057099342, -0.19583719968795776]], "layer2.bias": [-0.10334953665733337, -0.16966257989406586]}, "optimizer_state_dict": {"state": {"0": {"step": 3.0, "exp_avg": [[0.0033727488480508327, -5.952538049314171e-05, 0.00296054407954216, 0.0023485985584557056, 0.0024744844995439053, 0.0008879462257027626, -0.0009484285255894065, -0.0002680406905710697, 0.0018884283490478992, 0.0012650452554225922], [0.00156097870785743, 0.002266206545755267, 0.002288695890456438, 0.0002263826027046889, 0.0050834971480071545, 0.0031193688046187162, 0.0005426508141681552, -0.002395131392404437, 0.0042108590714633465, -8.617638741270639e-06], [-0.006120854057371616, -0.0026424857787787914, -0.00013661070261150599, 0.0015029709320515394, 0.0002974504604935646, 0.0064424779266119, 0.0008911515469662845, -0.0005368055426515639, -0.006679263431578875, 0.006240842863917351], [0.0005374404136091471, -0.005713129416108131, 0.0028715645894408226, 0.0008696746081113815, 0.0035711396485567093, 0.004479736089706421, -0.008036964572966099, -0.0016673041973263025, 0.0017195395193994045, -0.00158664770424366], [-0.0037494024727493525, -0.002983442973345518, -0.006895995698869228, 0.0012560199247673154, -0.0051946984604001045, -0.004825269803404808, -0.0026901247911155224, -0.00026792206335812807, 0.0002464529243297875, 0.00039423489943146706], [-0.0019644880667328835, -0.0008119386620819569, -0.0023738890886306763, 0.00043025694321841, -0.0014140468556433916, -0.0023133791983127594, -0.0012556458823382854, -1.4039167126611574e-06, -0.0030297948978841305, 0.0012075421400368214], [0.001562472665682435, 0.007225025445222855, -0.0010355892591178417, 0.0011163161834701896, -4.707965854322538e-05, 0.00038085400592535734, 0.006471109576523304, -0.0037657462526112795, 7.907416147645563e-05, 0.0011117863468825817], [0.0013665857259184122, -0.00016211590263992548, 0.0032920397352427244, -0.0016311665531247854, 0.0024090141523629427, 0.0013690951745957136, -9.141124610323459e-05, -0.0015781281981617212, -0.0037788874469697475, 0.00215268530882895], [0.009378951974213123, 0.006976722739636898, 0.008642428554594517, -0.00190478446893394, 0.012682447209954262, 0.00454910472035408, 0.00574615690857172, -0.001040649600327015, -0.0001743923348840326, -0.0018151621334254742], [0.0009690332226455212, -0.002905864268541336, -0.004559140652418137, -0.0011508313473314047, 0.0011367148254066706, 0.0020269667729735374, -0.003159160725772381, -0.0013038527686148882, -0.000494386360514909, 0.00027500803116708994], [-0.005304745864123106, -0.0018563923658803105, -0.0004125427221879363, -0.0017275491263717413, -0.004588323179632425, 0.0047947741113603115, 0.005437497980892658, 0.0017066290602087975, -0.009130778722465038, 0.005465516820549965], [-0.0006936397403478622, -0.0003689560107886791, -0.001217031734995544, 0.00027167581720277667, -0.000916292134206742, -0.0005493804346770048, -0.0007173549383878708, 0.0001365095959044993, 0.00016230580513365567, 0.0001871702988864854], [0.0011233027325943112, -0.0011791505385190248, 0.0014061016263440251, 0.0024526549968868494, 0.00043468177318573, 0.00019487547979224473, 0.0005080796545371413, -0.00047150038881227374, 0.0005088035832159221, 0.0014841018710285425], [-0.0031949160620570183, -0.002486112993210554, -0.001905529759824276, 0.0010952973971143365, -0.000679325545206666, 0.001747660804539919, 0.001544509083032608, -3.314474815852009e-05, -0.0014277687296271324, -0.001533963717520237], [0.0010218946263194084, 0.0002589814248494804, 0.0012598917819559574, -0.0004639762919396162, -0.00048366791452281177, -0.0010176696814596653, 0.0010439959587529302, 0.0002112151705659926, -0.0006757181836292148, 0.0009489399963058531], [0.0009332686895504594, 0.0013630299363285303, 0.001729089766740799, 0.0002778251946438104, -9.58086020546034e-05, 0.00044264577445574105, -0.0006191572174429893, -0.000267852155957371, 0.003203675616532564, -3.31753290083725e-05], [-0.0001705617760308087, 0.0004351002862676978, -0.003283596131950617, -0.00015657133189961314, -0.001880335621535778, -0.0016911935526877642, -0.004283265210688114, 0.0011773360893130302, 0.0008663298794999719, -0.004040767438709736], [0.0012411280767992139, -0.0005179926520213485, 0.0016049235127866268, -0.0031742099672555923, -0.002489574486389756, -0.0013802830362692475, 0.0032370472326874733, 0.0013596400385722518, -0.0005955694941803813, 0.00012721859093289822], [-0.0018677371554076672, -0.00015590102702844888, -0.0039944942109286785, 0.00539653142914176, -0.000796740991063416, -0.0019203147385269403, -9.23967090784572e-05, 0.0011019031517207623, 0.0016381265595555305, -0.0008856237982399762], [0.0011810858268290758, -0.0005814709584228694, -0.0006416464457288384, 0.0007045957027003169, 0.0016030273400247097, -0.0011865220731124282, 0.0002595488913357258, 0.005824184976518154, -0.002845003269612789, 4.4504668039735407e-07]], "exp_avg_sq": [[4.653360292650177e-07, 1.531953036648659e-10, 3.5861174296769605e-07, 2.2560570300811378e-07, 2.5014384164023795e-07, 3.213980548366635e-08, 3.676976945143906e-08, 2.9316273852941777e-09, 1.4585944541067875e-07, 6.534337870789386e-08], [9.957403790394892e-08, 2.10576359904735e-07, 2.1486295054273796e-07, 2.1439587882809974e-09, 1.0558163694440736e-06, 3.980161977779062e-07, 1.2069500066047567e-08, 2.3397652171297523e-07, 7.263527095346944e-07, 5.208663361733201e-12], [1.5320764532589237e-06, 2.869947763883829e-07, 9.193519834305164e-10, 9.32265322717285e-08, 3.988215091510483e-09, 1.6967615010798909e-06, 3.2175911712784e-08, 1.1680036493544321e-08, 1.8266514416609425e-06, 1.5959847132762661e-06], [1.1720315384877722e-08, 1.332351303062751e-06, 3.376674726496276e-07, 3.0662011596405137e-08, 5.201519570618984e-07, 8.204189043681254e-07, 2.6361262825957965e-06, 1.1501977326133783e-07, 1.2095202350792533e-07, 1.0355020663155301e-07], [5.746813940277207e-07, 3.6345710441310075e-07, 1.9411349967413116e-06, 6.437943511627964e-08, 1.1016589951395872e-06, 9.496090456195816e-07, 2.954703290924954e-07, 3.017750715983425e-09, 2.473815818859748e-09, 6.43685904577751e-09], [1.5728055302588473e-07, 2.686235411886173e-08, 2.2970803570387943e-07, 7.547363622961711e-09, 8.14742122656753e-08, 2.181529339395638e-07, 6.428462029361981e-08, 6.259778936520966e-13, 3.7399968277895823e-07, 5.943491743209961e-08], [1.012003849609755e-07, 2.137734099960653e-06, 4.472871850680349e-08, 5.0748415247880985e-08, 8.486373270777392e-10, 5.889015497473338e-09, 1.7188742731377715e-06, 5.780340188721311e-07, 1.0848660858542303e-09, 5.042899786644739e-08], [7.648813493688067e-08, 1.0667161598476582e-09, 4.4337787130643846e-07, 1.0914513381976576e-07, 2.3896652123767126e-07, 7.676968749592561e-08, 3.530816472530063e-10, 1.0179348919336917e-07, 5.851345008522912e-07, 1.905438438143392e-07], [3.590744654502487e-06, 1.9872225038852775e-06, 3.0489934488286963e-06, 1.484621776626227e-07, 6.573897735506762e-06, 8.455559736830764e-07, 1.3477344964485383e-06, 4.445959334020699e-08, 1.3085288408376528e-09, 1.3488414651874336e-07], [4.3002600591535156e-08, 3.428604600230756e-07, 8.444289960607421e-07, 5.399068925271422e-08, 5.6683269633595046e-08, 1.7315387879079935e-07, 4.1314544318993285e-07, 6.913487027304654e-08, 1.3464170223187466e-08, 1.0915656822874098e-08], [1.1487857136671664e-06, 1.4055036956506228e-07, 6.895381599036909e-09, 1.2158463391642726e-07, 8.641776503282017e-07, 9.412431154487422e-07, 1.2072208619429148e-06, 1.212735725175662e-07, 3.41168197337538e-06, 1.2235693702677963e-06], [1.976180996621224e-08, 5.5888640382306676e-09, 6.058130708197496e-08, 2.990783176670675e-09, 3.404412396434964e-08, 1.2277140193361902e-08, 2.1156786544906936e-08, 7.561196113670121e-10, 1.0889309454142904e-09, 1.4230872036335995e-09], [5.1518050270260574e-08, 5.685929949095225e-08, 8.113229199580019e-08, 2.4654130470480595e-07, 7.971726390110234e-09, 1.539035565656377e-09, 1.0650541781842549e-08, 9.087361085846624e-09, 1.0840592423733142e-08, 9.052443772361585e-08], [4.1639563619355613e-07, 2.5225469357792463e-07, 1.4835801209756028e-07, 4.883577275904827e-08, 1.878123789822439e-08, 1.2487589629017748e-07, 9.731057559747569e-08, 5.260657881533959e-11, 8.333952905559272e-08, 9.611308371404448e-08], [4.2593043758643034e-08, 2.898382422955592e-09, 6.447514522278652e-08, 8.85004070028117e-09, 9.565726877269753e-09, 4.2506201225478435e-08, 4.4748155403340206e-08, 1.82165227347042e-09, 1.8552302805119325e-08, 3.681549998191258e-08], [3.5387117236496124e-08, 7.560242920590099e-08, 1.220334695517522e-07, 3.1283904355916548e-09, 3.7460601287619966e-10, 8.06687516785587e-09, 1.55985411254278e-08, 3.002209592040117e-09, 4.1790883642534027e-07, 4.79575233691687e-11], [1.2643279756474612e-09, 7.778113264578224e-09, 4.4010090505253174e-07, 9.936895750684016e-10, 1.452129936296842e-07, 1.167244505495546e-07, 7.486048616556218e-07, 5.6357883693181066e-08, 3.0637998804650124e-08, 6.68527320613066e-07], [6.266956376066446e-08, 1.0978714826137548e-08, 1.0495748625771739e-07, 4.1118414628726896e-07, 2.538896239911992e-07, 7.81547271344607e-08, 4.2802599864444346e-07, 7.531742340916026e-08, 1.4382151469760629e-08, 6.647294381600943e-10], [1.4253841129630018e-07, 1.001658977983766e-09, 6.542492201333516e-07, 1.1878563555001165e-06, 2.58884735870879e-08, 1.5037443290566443e-07, 3.6182568052822717e-10, 4.9918597255782515e-08, 1.0944723527472888e-07, 3.235868817341725e-08], [5.674767322716434e-08, 1.3914816854310175e-08, 1.6810636438435722e-08, 2.0184005578016695e-08, 1.0444184539437629e-07, 5.754715459715953e-08, 2.818777655733129e-09, 1.3860903891327325e-06, 3.3076506156248797e-07, 2.175284258276733e-11]]}, "1": {"step": 3.0, "exp_avg": [-0.00204465608112514, 0.005550261586904526, 0.010543170385062695, -0.013148365542292595, -6.853364175185561e-05, 0.0006344931316561997, 0.007410193793475628, 0.005326005630195141, 0.004766212310642004, 0.004319405183196068, 0.006522361189126968, -0.0001043205993482843, 0.0031998546328395605, -0.001414759550243616, 0.00021635767188854516, -0.001526107545942068, -0.005767178721725941, 0.0029668835923075676, -0.008360421285033226, 0.002060441067442298], "exp_avg_sq": [1.7051102929599438e-07, 1.2639318356377771e-06, 4.55769668405992e-06, 7.079435818013735e-06, 2.7626023690885404e-10, 1.6414343662063402e-08, 2.2677902506984537e-06, 1.1636341241683112e-06, 9.306122592533939e-07, 7.591598318867909e-07, 1.7475520053267246e-06, 6.112943484737343e-10, 4.2119214072044997e-07, 8.2266033984979e-08, 2.086370631815271e-09, 9.479747120622051e-08, 1.360401370220643e-06, 3.61185584552004e-07, 2.852816123777302e-06, 1.7439859334444918e-07]}, "2": {"step": 3.0, "exp_avg": [[-0.0022238632664084435, -0.022449642419815063, -0.007666144520044327, -0.02065562643110752, -0.011883207596838474, -0.0012056701816618443, -0.018164684996008873, -0.017530694603919983, -0.01435614749789238, -0.009533620439469814, -0.013091027736663818, -0.03238118439912796, -0.0122598297894001, -0.02480180934071541, -0.009921073913574219, -0.005380123853683472, -0.007056980859488249, -0.003556137438863516, -0.02247614972293377, -0.010941630229353905], [0.005698309745639563, -0.002805806929245591, -0.01669945940375328, -0.029344111680984497, -0.004662569612264633, 0.004122552927583456, -0.013117091730237007, -0.004374749027192593, -0.004683923441916704, -0.01201494038105011, -0.011508265510201454, -0.015153049491345882, -0.00014325554366223514, -0.008957212790846825, -0.007722118869423866, -0.02961200475692749, -0.02561056613922119, -0.020470652729272842, -0.00768466480076313, -0.005772123113274574]], "exp_avg_sq": [[2.0500750963492465e-07, 2.0695219063782133e-05, 2.4232806481450098e-06, 1.7499000023235567e-05, 5.78587741983938e-06, 6.012533049215563e-08, 1.3552632481150795e-05, 1.260533190361457e-05, 8.456208888674155e-06, 3.746278252947377e-06, 7.04588364897063e-06, 4.287953197490424e-05, 6.176387614686973e-06, 2.5167159037664533e-05, 4.054531473229872e-06, 1.2019534096907591e-06, 2.0479378690652084e-06, 5.253667154647701e-07, 2.0654340914916247e-05, 4.897739017906133e-06], [1.3245080481283367e-06, 3.345593313497375e-07, 1.1428550351411104e-05, 3.5231139918323606e-05, 9.089136483453331e-07, 6.895056685607415e-07, 7.059675681375666e-06, 7.916293043308542e-07, 8.986779675979051e-07, 5.941645667917328e-06, 5.441285793494899e-06, 9.442195732844993e-06, 4.517905161094404e-09, 3.2898192330321763e-06, 2.4458299776597414e-06, 3.583624857128598e-05, 2.6840694772545248e-05, 1.7117612514994107e-05, 2.4272376322187483e-06, 1.3697925851374748e-06]]}, "3": {"step": 3.0, "exp_avg": [-0.07844758033752441, -0.06534746289253235], "exp_avg_sq": [0.0002520220004953444, 0.00017488586308900267]}}, "param_groups": [{"lr": 0.001, "betas": [0.9, 0.999], "eps": 1e-08, "weight_decay": 0, "amsgrad": false, "maximize": false, "foreach": null, "capturable": false, "differentiable": false, "fused": null, "params": [0, 1, 2, 3]}]}, "epoch": 3, "loss": 1.089786171913147}