{"torch_version": "2.0.1+cpu", "model_state_dict": {"layer1.weight": [[0.06943126022815704, -0.23756512999534607, -0.005899769254028797, 0.1436065286397934, 0.03705190494656563, -0.2501049339771271, -0.08700820058584213, 0.1524249017238617, 0.2161576896905899, -0.2789791524410248], [-0.07466617971658707, 0.2416185885667801, 0.3126033842563629, 0.2569323480129242, 0.06046311929821968, 0.0451580174267292, 0.0701095387339592, 0.27337971329689026, 0.25944873690605164, -0.010977155528962612], [-0.22578631341457367, -0.1714877486228943, -0.011929064989089966, 0.2748747766017914, 0.23666200041770935, 0.06923820078372955, -0.25308316946029663, 0.10057119280099869, -0.25923776626586914, 0.22919584810733795], [0.20198163390159607, 0.056066375225782394, -0.3071586787700653, 0.2550401985645294, -0.0756186842918396, -0.2974848449230194, 0.19507049024105072, 0.2953774034976959, -0.006647985428571701, -0.050988513976335526], [0.0974130779504776, 0.13057197630405426, -0.04267149046063423, 0.26944872736930847, 0.07892008125782013, 0.1791207641363144, -0.19176621735095978, 0.0902402475476265, 0.05581384897232056, 0.08928631991147995], [0.2990665137767792, 0.2051001638174057, -0.200749471783638, -0.011717027984559536, -0.03568141534924507, 0.015491437166929245, -0.18735460937023163, 0.28593140840530396, 0.028026502579450607, -0.13083891570568085], [0.2792857587337494, 0.2627898156642914, 0.09005553275346756, 0.15231214463710785, -0.11121775954961777, -0.22659200429916382, 0.24813099205493927, 0.28554263710975647, -0.08013017475605011, -0.057636361569166183], [0.07439502328634262, 0.07256244868040085, 0.16519878804683685, -0.2033786028623581, 0.23713548481464386, 0.05043255165219307, 0.2807345986366272, 0.09012214094400406, -0.2750316262245178, 0.2564717233181], [-0.15168645977973938, 0.058182645589113235, -0.03654811903834343, -0.07824817299842834, 0.19467945396900177, 0.09838046133518219, 0.06142132356762886, -0.3028186857700348, -0.2174054980278015, -0.2360432893037796], [0.21700622141361237, -0.13240531086921692, 0.02445397898554802, 0.01142845582216978, -0.308939129114151, -0.2168179154396057, -0.09620355069637299, -0.27858227491378784, -0.05489637702703476, -0.23390667140483856], [-0.05341251567006111, 0.14792437851428986, 0.2380702793598175, 0.10546411573886871, -0.2848767936229706, 0.22017045319080353, -0.22085027396678925, 0.2833453118801117, -0.2875499725341797, 0.2948351204395294], [-0.26936763525009155, -0.0701555535197258, 0.21062897145748138, 0.2102944552898407, 0.2458156794309616, -0.008875422179698944, -0.09747590869665146, -0.3014885187149048, -0.1414739191532135, -0.25660255551338196], [-0.26275068521499634, -0.11839059740304947, 0.23749954998493195, 0.21552874147891998, 0.25546541810035706, -0.1809939444065094, 0.2735128700733185, -0.015777193009853363, 0.2580495774745941, 0.2686951458454132], [-0.036898452788591385, 0.2524373233318329, 0.1831534057855606, 0.1284918636083603, -0.008715263567864895, -0.29213929176330566, 0.1218160018324852, -0.19581419229507446, -0.13691364228725433, 0.10605020076036453], [0.2288622409105301, 0.17618024349212646, -0.1472613364458084, 0.15240317583084106, -0.25772109627723694, -0.2227957397699356, 0.0006999270990490913, -0.058790504932403564, 0.22840039432048798, -0.0021405022125691175], [0.030593683943152428, -0.26191526651382446, -0.019768279045820236, -0.09907267987728119, -0.10203021764755249, -0.22990602254867554, -0.25603044033050537, 0.2830183804035187, -0.2795475125312805, -0.04503505676984787], [-0.2521824240684509, -0.2392578423023224, -0.10875064134597778, -0.08568146079778671, 0.18001167476177216, -0.14544279873371124, -0.025134550407528877, 0.2390986829996109, -0.13312774896621704, 0.1673157662153244], [-0.2918216288089752, -0.010778002440929413, -0.21766038239002228, -0.06938433647155762, -0.19118012487888336, -0.04127104952931404, 0.17960019409656525, -0.1652861386537552, 0.12815390527248383, -0.2581341564655304], [-0.09025292098522186, -0.15262259542942047, 0.24376504123210907, -0.14998702704906464, -0.13640540838241577, -0.07903699576854706, 0.0649258941411972, -0.28373464941978455, -0.07180637121200562, -0.06009109690785408], [-0.17696648836135864, -0.18422886729240417, 0.25359871983528137, -0.26624202728271484, -0.2660348415374756, -0.20311765372753143, 0.24919965863227844, 0.16703005135059357, -0.0556197352707386, 0.047141119837760925]], "layer1.bias": [-0.2772105634212494, 0.053499866276979446, -0.20675955712795258, 0.24826131761074066, 0.07740124315023422, -0.25065839290618896, 0.052545685321092606, -0.2582884132862091, -0.12931177020072937, 0.1615447849035263, -0.26595813035964966, 0.26815375685691833, -0.2104799896478653, 0.10958225280046463, -0.08720237016677856, 0.13222087919712067, 0.025431377813220024, -0.12648668885231018, 0.1693376749753952, -0.2517109513282776], "layer2.weight": [[-0.16845260560512543, -0.10800019651651382, -0.21983158588409424, 0.20665566623210907, 0.10829035937786102, 0.07141996175050735, -0.2026752382516861, -0.06937159597873688, -0.206094428896904, 0.08164723217487335, -0.200301393866539, 0.014567343518137932, -0.0632418543100357, -0.015932725742459297, -0.034726161509752274, -0.00542015116661787, 0.1973939687013626, -0.11671058088541031, 0.13561446964740753, 0.10077641904354095], [0.12743021547794342, -0.0001566887367516756, -0.10673576593399048, 0.11795131862163544, -0.09103754162788391, -0.08480198681354523, 0.03822467848658562, -0.09996175765991211, 0.15166403353214264, -0.14854249358177185, -0.10881909728050232, -0.012987421825528145, -0.07082059234380722, 0.1724439114332199, 0.020269302651286125, 0.051444362848997116, -0.04143804684281349, 0.02420531027019024, 0.010540422983467579, -0.19783209264278412]], "layer2.bias": [-0.10534712672233582, -0.17166012525558472]}, "optimizer_state_dict": {"state": {"0": {"step": 1.0, "exp_avg": [[0.001266096718609333, -2.692071757337544e-05, 0.001112785073928535, 0.0008806066471152008, 0.00092048424994573, 0.0003247736021876335, -0.00035426049726083875, -9.894194226944819e-05, 0.0007080473587848246, 0.00046888901852071285], [0.0005819015204906464, 0.0008630378288216889, 0.0008736923336982727, 9.390735067427158e-05, 0.001892328611575067, 0.0011703763157129288, 0.00020621948351617903, -0.0008800341165624559, 0.0015948303043842316, 8.336268706443661e-07], [-0.0022927091922611, -0.0010197530500590801, -7.528900459874421e-05, 0.0005918110837228596, 0.00014562734577339143, 0.0024078700225800276, 0.0002943718573078513, -0.00018150443793274462, -0.0025221470277756453, 0.0023682042956352234], [0.00016635842621326447, -0.0021126156207174063, 0.001084975665435195, 0.00027511763619259, 0.001312144217081368, 0.001674700528383255, -0.0029674440156668425, -0.0006636883481405675, 0.0006453092209994793, -0.0006148787797428668], [-0.0014010121813043952, -0.0011059140088036656, -0.0025497982278466225, 0.00046378420665860176, -0.0019227771554142237, -0.0017723750788718462, -0.0009966378565877676, -0.00011271457333350554, 8.952906500780955e-05, 0.00015762682596687227], [-0.0007170960307121277, -0.0002958487893920392, -0.0008680257014930248, 0.00015758683730382472, -0.000515407940838486, -0.000846021284814924, -0.0004602175613399595, -2.1214598291408038e-06, -0.001103155198507011, 0.00044131261529400945], [0.0006207969854585826, 0.002721987199038267, -0.000405519938794896, 0.00038752914406359196, 1.525990774098318e-05, 0.00012638166663236916, 0.002461446914821863, -0.0013720643473789096, 6.385031156241894e-05, 0.00038832385325804353], [0.0005169675569050014, -5.648152364301495e-05, 0.0012366699520498514, -0.0006228660931810737, 0.0009386166930198669, 0.0005179296131245792, -2.083208346448373e-05, -0.0005890639731660485, -0.0014336698222905397, 0.0008327032555826008], [0.003468646202236414, 0.0025831039529293776, 0.0031967938411980867, -0.0007165290298871696, 0.004732663277536631, 0.0016939947381615639, 0.0021241633221507072, -0.00039911651401780546, -7.812483090674505e-05, -0.0006846213946118951], [0.00023939325183164328, -0.0010066431714221835, -0.0016289735212922096, -0.00038832263089716434, 0.00030163719202391803, 0.0008147904882207513, -0.0012280361261218786, -0.00044652176438830793, -0.0002589247887954116, -3.108332384726964e-05], [-0.0019630223978310823, -0.0006818715482950211, -0.0001349543745163828, -0.0006286670686677098, -0.0017584925517439842, 0.0018097065621986985, 0.002014873316511512, 0.000696611765306443, -0.003435516497120261, 0.002068939385935664], [-0.00026673669344745576, -0.00014156464021652937, -0.0004563777183648199, 9.08401416381821e-05, -0.000313143857056275, -0.00019695042283274233, -0.00027733948081731796, 4.724801328848116e-05, 6.436910916818306e-05, 6.598860636586323e-05], [0.00041613445500843227, -0.0004418737371452153, 0.0005381560768000782, 0.0009317955118604004, 0.00018502776219975203, 6.239954382181168e-05, 0.00019974983297288418, -0.00017603968444745988, 0.00021187300444580615, 0.0005729225813411176], [-0.0011755413142964244, -0.0009181991335935891, -0.0007095016771927476, 0.00039560144068673253, -0.00024484898312948644, 0.0006536698201671243, 0.0005682006012648344, -4.113931481697364e-06, -0.0005338629125617445, -0.0005699977627955377], [0.00037559415795840323, 0.0001171167750726454, 0.0004440010234247893, -0.00017923708946909755, -0.0001811679539969191, -0.00038979918463155627, 0.000400507909944281, 7.830408867448568e-05, -0.00023908457660581917, 0.00035492205643095076], [0.00032997780363075435, 0.0004906451213173568, 0.0006390953785739839, 8.860459638526663e-05, -3.537876909831539e-05, 0.00017227407079190016, -0.0002226990181952715, -0.00011115330562461168, 0.0011600047582760453, -6.470515018008882e-06], [-7.818639278411865e-05, 0.0001674792729318142, -0.0012140990002080798, -4.9734022468328476e-05, -0.0007226909510791302, -0.0006243126117624342, -0.0015793110942468047, 0.0004201927222311497, 0.0003203896339982748, -0.0015254932222887874], [0.0004469924315344542, -0.00019380627782084048, 0.0005801966181024909, -0.0011743344366550446, -0.0009428440826013684, -0.0005215232959017158, 0.001203585066832602, 0.0004977210774086416, -0.00018860293494071811, 3.401434514671564e-05], [-0.0006913562538102269, -5.394341496867128e-05, -0.0015104917110875249, 0.001983703812584281, -0.00028918683528900146, -0.0007029575644992292, -4.057121623191051e-05, 0.0004257048130966723, 0.0006028239731676877, -0.0003454275138210505], [0.0004237711546011269, -0.00022592981986235827, -0.0002377049095230177, 0.00025120904319919646, 0.0005691496189683676, -0.0004432373389136046, 0.00010779388685477898, 0.0021703210659325123, -0.0010606026044115424, 1.1396640729799401e-05]], "exp_avg_sq": [[1.6030008964662557e-07, 7.247250716213571e-11, 1.2382906788843684e-07, 7.754681519145379e-08, 8.472911616763668e-08, 1.054779019682428e-08, 1.255004988820474e-08, 9.789508093049903e-10, 5.013311010770849e-08, 2.1985691489589954e-08], [3.3860938941643326e-08, 7.44834309784892e-08, 7.6333833476383e-08, 8.818590857551101e-10, 3.5809077303383674e-07, 1.3697807332846423e-07, 4.252647567426493e-09, 7.744600338810415e-08, 2.5434837880311534e-07, 6.949337481333695e-14], [5.256515009932627e-07, 1.0398963468105649e-07, 5.66843405547246e-10, 3.502403700395007e-08, 2.1207322564720243e-09, 5.797838298349234e-07, 8.665479889202743e-09, 3.294385875207695e-09, 6.36122649666504e-07, 5.60839168883831e-07], [2.7675128855264575e-09, 4.4631443074649724e-07, 1.1771722085995862e-07, 7.568971227556176e-09, 1.7217224979049206e-07, 2.804621885843517e-07, 8.805723723526171e-07, 4.4048221070625004e-08, 4.164240152704224e-08, 3.780759172400394e-08], [1.9628350855782628e-07, 1.2230457002715411e-07, 6.501471716546803e-07, 2.1509579894996023e-08, 3.6970718042539374e-07, 3.141313413834723e-07, 9.932869460271831e-08, 1.2704575169664167e-09, 8.015453301091213e-10, 2.4846216195584248e-09], [5.1422674118839495e-08, 8.752650160204212e-09, 7.534686830013015e-08, 2.4833610723362654e-09, 2.6564535460238403e-08, 7.157519377187782e-08, 2.118002306872313e-08, 4.5005915227241955e-13, 1.2169512331183796e-07, 1.9475681511949006e-08], [3.853889296578927e-08, 7.409213935716252e-07, 1.6444641204316213e-08, 1.5017883825407807e-08, 2.328647517868543e-11, 1.5972324574065055e-09, 6.058721169210912e-07, 1.8825606673544826e-07, 4.0768624587350644e-10, 1.507954117130339e-08], [2.672554977323216e-08, 3.1901625785479837e-10, 1.5293525734705327e-07, 3.8796216017544793e-08, 8.81001298580486e-08, 2.6825105692296347e-08, 4.339756679017093e-11, 3.469963516522512e-08, 2.0554091406665975e-07, 6.933947105380867e-08], [1.2031506457788055e-06, 6.67242545659974e-07, 1.0219490604868042e-06, 5.134138802986854e-08, 2.2398101009457605e-06, 2.8696183562715305e-07, 4.5120700065126584e-07, 1.5929401797620812e-08, 6.10348993568266e-10, 4.687064603103863e-08], [5.730913077428568e-09, 1.0133306460602398e-07, 2.6535548158790334e-07, 1.5079447024390902e-08, 9.098498843229663e-09, 6.638835259309417e-08, 1.5080726711858006e-07, 1.9938170225941576e-08, 6.704204746910136e-09, 9.661729055698842e-11], [3.8534568602699437e-07, 4.649488261065926e-08, 1.821268247326202e-09, 3.952222726866239e-08, 3.092295912665577e-07, 3.2750378409218683e-07, 4.0597140582576685e-07, 4.852679325040299e-08, 1.1802773087765672e-06, 4.280509813270328e-07], [7.114847377920341e-09, 2.004054922011278e-09, 2.0828064606348562e-08, 8.251931360447884e-10, 9.805908085525061e-09, 3.878946497337665e-09, 7.691719261515573e-09, 2.2323749793162762e-10, 4.143381748811237e-10, 4.3544962080588334e-10], [1.731678622718391e-08, 1.9525238315054594e-08, 2.8961194331600382e-08, 8.682428642714513e-08, 3.423527461521303e-09, 3.893703137691773e-10, 3.9899998860448704e-09, 3.0989972810147037e-09, 4.489016713904448e-09, 3.2824033269207575e-08], [1.381897192231918e-07, 8.430897224798173e-08, 5.0339263424348246e-08, 1.565005014469989e-08, 5.9951030806359995e-09, 4.2728423466087406e-08, 3.2285193185543903e-08, 1.6924430606968244e-12, 2.850096336715069e-08, 3.24897477810282e-08], [1.4107096824034215e-08, 1.3716339175573466e-09, 1.9713690235789727e-08, 3.2125937465821153e-09, 3.28218296985483e-09, 1.519434000840647e-08, 1.6040660355542968e-08, 6.131530838615618e-10, 5.7161431143981645e-09, 1.2596967025046979e-08], [1.0888534518471715e-08, 2.4073266047253128e-08, 4.0844287951813385e-08, 7.850775030071588e-10, 1.251657250067595e-10, 2.9678355328854877e-09, 4.959485710998024e-09, 1.2355056977497725e-09, 1.345611053693574e-07, 4.1867568439935e-12], [6.113112238637086e-10, 2.804930732125399e-09, 1.4740365372745146e-07, 2.4734730930120463e-10, 5.222822352379808e-08, 3.897662281815428e-08, 2.4942235654634715e-07, 1.7656192952131278e-08, 1.0264952443606035e-08, 2.327129351442636e-07], [1.9980223697757538e-08, 3.756086996986596e-09, 3.366281120520398e-08, 1.3790614161734993e-07, 8.889549718560374e-08, 2.7198653995696986e-08, 1.448617013011244e-07, 2.4772624840352364e-08, 3.5571066092643377e-09, 1.1569756958040855e-10], [4.779734652515799e-08, 2.90989204954073e-10, 2.2815852673829795e-07, 3.9350805991489324e-07, 8.362903258785082e-09, 4.941492903753897e-08, 1.646023733981039e-10, 1.8122458200764413e-08, 3.633967438076979e-08, 1.1932016263926926e-08], [1.7958198483825072e-08, 5.104428435487307e-09, 5.650362400189124e-09, 6.310598266168199e-09, 3.239313173253322e-08, 1.9645932880507644e-08, 1.1619522011230288e-09, 4.710293239895691e-07, 1.1248780396044822e-07, 1.2988343039976868e-11]]}, "1": {"step": 1.0, "exp_avg": [-0.0007514592143706977, 0.0021217758767306805, 0.004014870617538691, -0.004968569148331881, 2.739019748787541e-07, 0.00023264736228156835, 0.0028964693192392588, 0.0020339605398476124, 0.001805342035368085, 0.0015749639132991433, 0.0025100030470639467, -2.796086619127891e-06, 0.001240626792423427, -0.0005459744716063142, 0.00010399231541668996, -0.0005505128647200763, -0.0021624972578138113, 0.001136227510869503, -0.003092389088124037, 0.0007931857253424823], "exp_avg_sq": [5.646909428946856e-08, 4.501932551193022e-07, 1.6119187193908147e-06, 2.4686678443686105e-06, 7.502229259104699e-15, 5.412479797684e-09, 8.38953440052137e-07, 4.136995244152786e-07, 3.259259813148674e-07, 2.480511511748773e-07, 6.300115273916163e-07, 7.81810000852895e-13, 1.5391547947274375e-07, 2.980881319558648e-08, 1.081440159644842e-09, 3.0306445353289746e-08, 4.676393814406765e-07, 1.2910129498777678e-07, 9.562870673107682e-07, 6.291436704941589e-08]}, "2": {"step": 1.0, "exp_avg": [[-0.0008920350228436291, -0.008620314300060272, -0.0030058822594583035, -0.007878079079091549, -0.004510974511504173, -0.00047896700561977923, -0.006985211279243231, -0.006689202971756458, -0.005488211754709482, -0.0037312700878828764, -0.0050599887035787106, -0.012128948234021664, -0.004726320039480925, -0.00931935291737318, -0.003871715161949396, -0.002172400476410985, -0.002730143954977393, -0.0014387526316568255, -0.008406666107475758, -0.004109674133360386], [0.002095503732562065, -0.0012209616834297776, -0.006341088097542524, -0.011030604131519794, -0.0019369841320440173, 0.0014251716202124953, -0.005015903618186712, -0.0017401635413989425, -0.0017738096648827195, -0.004670215304940939, -0.00443266099318862, -0.00586326140910387, -0.00019266959861852229, -0.003412207355722785, -0.0029470284935086966, -0.011045373976230621, -0.009636989794671535, -0.007609841413795948, -0.0029673809185624123, -0.002231375779956579]], "exp_avg_sq": [[7.957265069080677e-08, 7.430981895595323e-06, 9.035327934725501e-07, 6.206412308529252e-06, 2.0348891212051967e-06, 2.2940939814475314e-08, 4.879318112216424e-06, 4.474543857213575e-06, 3.012046818184899e-06, 1.3922377775088535e-06, 2.5603487756598042e-06, 1.4711138646816835e-05, 2.233809937024489e-06, 8.685035027156118e-06, 1.4990177987783682e-06, 4.719323669633013e-07, 7.453686521330383e-07, 2.0700089464753546e-07, 7.06720356902224e-06, 1.6889420066945604e-06], [4.3911359171033837e-07, 1.490747507659762e-07, 4.02093974116724e-06, 1.216742293763673e-05, 3.7519075135605817e-07, 2.0311144055540353e-07, 2.5159290544252144e-06, 3.028169430763228e-07, 3.1464008998227655e-07, 2.181090849262546e-06, 1.9648484794743126e-06, 3.437783334447886e-06, 3.712157470303623e-09, 1.16431579044729e-06, 8.68497807005042e-07, 1.220002923218999e-05, 9.287156899517868e-06, 5.790968771179905e-06, 8.805350262264255e-07, 4.979037839802913e-07]]}, "3": {"step": 1.0, "exp_avg": [-0.029654700309038162, -0.024712996557354927], "exp_avg_sq": [8.794012683210894e-05, 6.10732167842798e-05]}}, "param_groups": [{"lr": 0.001, "betas": [0.9, 0.999], "eps": 1e-08, "weight_decay": 0, "amsgrad": false, "maximize": false, "foreach": null, "capturable": false, "differentiable": false, "fused": null, "params": [0, 1, 2, 3]}]}, "epoch": 1, "loss": 1.0981814861297607}