{"torch_version": "2.0.1+cpu", "model_state_dict": {"layer1.weight": [[0.06644147634506226, -0.23557119071483612, -0.008894149214029312, 0.14062194526195526, 0.03406631574034691, -0.25310951471328735, -0.08402779698371887, 0.15532931685447693, 0.21315616369247437, -0.28197571635246277], [-0.07766388356685638, 0.23862631618976593, 0.3096117675304413, 0.2539738416671753, 0.05746501684188843, 0.04216185212135315, 0.06711667031049728, 0.2763805687427521, 0.2564549148082733, -0.008820432238280773], [-0.2227897197008133, -0.1684994250535965, -0.009265574626624584, 0.2718932330608368, 0.2338319569826126, 0.0662410780787468, -0.2560947835445404, 0.10358207672834396, -0.2562432289123535, 0.2262025624513626], [0.19897200167179108, 0.059065915644168854, -0.31015297770500183, 0.25202932953834534, -0.07861942797899246, -0.300481915473938, 0.19807036221027374, 0.29835444688796997, -0.0096439803019166, -0.048001449555158615], [0.10041023790836334, 0.13357093930244446, -0.03967190906405449, 0.26644858717918396, 0.08191944658756256, 0.1821216642856598, -0.18876700103282928, 0.09318865090608597, 0.05281086266040802, 0.0863109901547432], [0.3020595908164978, 0.2080708146095276, -0.19774965941905975, -0.014706390909850597, -0.032686036080121994, 0.018486537039279938, -0.18440428376197815, 0.2877662777900696, 0.031008338555693626, -0.13383883237838745], [0.27630892395973206, 0.25979486107826233, 0.09303149580955505, 0.1493094116449356, -0.11130259931087494, -0.22960156202316284, 0.24513903260231018, 0.28854498267173767, -0.08185464888811111, -0.06063627451658249], [0.07140088826417923, 0.07557102292776108, 0.1622028946876526, -0.200387105345726, 0.23415014147758484, 0.04743846505880356, 0.2836883068084717, 0.0931195467710495, -0.2720382809638977, 0.2534840404987335], [-0.1546858549118042, 0.05518399924039841, -0.039547502994537354, -0.07525075227022171, 0.19168353080749512, 0.09538199007511139, 0.05841999873518944, -0.29985371232032776, -0.2146250605583191, -0.23304681479930878], [0.21409742534160614, -0.12939824163913727, 0.027459507808089256, 0.014431910589337349, -0.31188303232192993, -0.21978060901165009, -0.09322091937065125, -0.2755766808986664, -0.05225745588541031, -0.23415732383728027], [-0.050413113087415695, 0.15092533826828003, 0.24108195304870605, 0.10846684128046036, -0.28188642859458923, 0.21717578172683716, -0.2238493710756302, 0.28037866950035095, -0.28455451130867004, 0.29184117913246155], [-0.26637861132621765, -0.06716641038656235, 0.2136250138282776, 0.207283154129982, 0.2488260716199875, -0.005870427470654249, -0.09448813647031784, -0.3044970631599426, -0.14445209503173828, -0.25960928201675415], [-0.2657407522201538, -0.11539756506681442, 0.23450987040996552, 0.2125406265258789, 0.2526318430900574, -0.1840011328458786, 0.270521342754364, -0.012794552370905876, 0.2550729215145111, 0.265707790851593], [-0.033897850662469864, 0.25543713569641113, 0.1861514300107956, 0.12548789381980896, -0.005710885860025883, -0.2951362431049347, 0.11881537735462189, -0.19303451478481293, -0.13391655683517456, 0.10904864221811295], [0.22586140036582947, 0.17327821254730225, -0.15026883780956268, 0.15539094805717468, -0.25472426414489746, -0.2198050320148468, -0.00229012337513268, -0.06178946793079376, 0.2314072996377945, -0.005137537140399218], [0.027586564421653748, -0.26491981744766235, -0.02276790328323841, -0.10208389163017273, -0.0990302711725235, -0.23289139568805695, -0.25302571058273315, 0.285975843667984, -0.282551109790802, -0.04212278127670288], [-0.24928775429725647, -0.2422461211681366, -0.10575100034475327, -0.08267045766115189, 0.1830013245344162, -0.14244292676448822, -0.022134387865662575, 0.2360927015542984, -0.13612698018550873, 0.17031030356884003], [-0.2948262095451355, -0.007781469263136387, -0.22066374123096466, -0.06638474762439728, -0.18818631768226624, -0.038277607411146164, 0.1766018271446228, -0.1682879626750946, 0.1311647742986679, -0.26112353801727295], [-0.08725394308567047, -0.14962643384933472, 0.24675871431827545, -0.15298780798912048, -0.13340270519256592, -0.0760354995727539, 0.06785071641206741, -0.28672242164611816, -0.07480689138174057, -0.05710701644420624], [-0.1799616664648056, -0.18123628199100494, 0.2565819323062897, -0.26918742060661316, -0.2690405547618866, -0.20015425980091095, 0.24625414609909058, 0.1640377640724182, -0.052627082914114, 0.04595652222633362]], "layer1.bias": [-0.2742066979408264, 0.05050867050886154, -0.20975184440612793, 0.2512556314468384, 0.07985185086727142, -0.2535601854324341, 0.049562737345695496, -0.2612799406051636, -0.13230842351913452, 0.15854249894618988, -0.2689473330974579, 0.27068957686424255, -0.21346500515937805, 0.11257050931453705, -0.09005095064640045, 0.13522495329380035, 0.028427604585886, -0.12947744131088257, 0.17233715951442719, -0.25468266010284424], "layer2.weight": [[-0.1654786318540573, -0.10501036792993546, -0.21684859693050385, 0.20964738726615906, 0.11128388345241547, 0.07439734786748886, -0.1996859312057495, -0.06637987494468689, -0.20310325920581818, 0.08463078737258911, -0.19731365144252777, 0.01756390370428562, -0.06025313958525658, -0.01293693482875824, -0.03174159675836563, -0.002449312247335911, 0.2003813236951828, -0.11374037712812424, 0.13861137628555298, 0.10377234220504761], [0.12442955374717712, 0.002775972243398428, -0.10374262928962708, 0.12094707787036896, -0.08807692676782608, -0.08781127631664276, 0.04121571034193039, -0.0969838872551918, 0.15465806424617767, -0.1455565094947815, -0.10583009570837021, -0.009999891743063927, -0.06965043395757675, 0.1754361242055893, 0.023261090740561485, 0.05444197729229927, -0.03844255954027176, 0.02720370516180992, 0.01352885365486145, -0.19484421610832214]], "layer2.bias": [-0.10235289484262466, -0.16866591572761536]}, "optimizer_state_dict": {"state": {"0": {"step": 4.0, "exp_avg": [[0.004109811503440142, -3.4624681575223804e-06, 0.0036911515053361654, 0.0028037535957992077, 0.002951243659481406, 0.00116633006837219, -0.0011146083706989884, -0.00027012251666747034, 0.0024997717700898647, 0.0015773193445056677], [0.001969881122931838, 0.0028281472623348236, 0.0028527367394417524, 0.0002686918596737087, 0.006422616075724363, 0.003923301585018635, 0.0006780113326385617, -0.0030457773245871067, 0.005271454807370901, -1.683354639681056e-05], [-0.007705673575401306, -0.0032734600827097893, -0.00012868386693298817, 0.0018413641955703497, 0.0003157818573527038, 0.008120195008814335, 0.0011917436495423317, -0.0007106057601049542, -0.008372246287763119, 0.007804226130247116], [0.0007400086615234613, -0.0072416034527122974, 0.0035968474112451077, 0.0011870417511090636, 0.00453765457496047, 0.005645847413688898, -0.010195733048021793, -0.0020270489621907473, 0.00216101948171854, -0.001961632864549756], [-0.004726029001176357, -0.003775809658691287, -0.008742433041334152, 0.0015961426543071866, -0.0065827020443975925, -0.006135859992355108, -0.0034078918397426605, -0.00031307298922911286, 0.0003151546115987003, 0.0004781309107784182], [-0.0023861252702772617, -0.0009204797097481787, -0.0029844269156455994, 0.000516023428644985, -0.0017331962008029222, -0.0028374227695167065, -0.0013646424049511552, -0.00021994873532094061, -0.003537063952535391, 0.0015186805976554751], [0.0019044196233153343, 0.009070312604308128, -0.0012756872456520796, 0.001454835874028504, -0.00010910737910307944, 0.0005083439173176885, 0.008083748631179333, -0.004811744671314955, 4.410353722050786e-05, 0.0014460112433880568], [0.0017118591349571943, -0.00021138082956895232, 0.004138629417866468, -0.00203261012211442, 0.002970425644889474, 0.0017146579921245575, -0.00013833992125000805, -0.0019903513602912426, -0.004725713282823563, 0.002664517844095826], [0.011876996606588364, 0.008800460956990719, 0.010945778340101242, -0.0024226701352745295, 0.015847064554691315, 0.00576435262337327, 0.007384811528027058, -0.001187430927529931, -0.00047750299563631415, -0.0023008454591035843], [0.0014329489786177874, -0.0037992834113538265, -0.005874814465641975, -0.0015192789724096656, 0.0016419653547927737, 0.002458199393004179, -0.003902812022715807, -0.001712940400466323, -0.0004962509265169501, 0.0005734701408073306], [-0.006722215097397566, -0.0023616305552423, -0.0005544237792491913, -0.0022083560470491648, -0.005704397335648537, 0.0060121468268334866, 0.006884953007102013, 0.002046765759587288, -0.01146718394011259, 0.006843681912869215], [-0.0008593520033173263, -0.00045634107664227486, -0.0015287181595340371, 0.000361186801455915, -0.0012100737076252699, -0.0007062240620143712, -0.0008878381340764463, 0.00017716194270178676, 0.00019749149214476347, 0.0002413008623989299], [0.0013588861329481006, -0.0014561136486008763, 0.001739156898111105, 0.0029934626072645187, 0.0004173156921751797, 0.00028119783382862806, 0.0006622170913033187, -0.0005579697317443788, 0.0006662472151219845, 0.0018301208037883043], [-0.0040606227703392506, -0.0031534512527287006, -0.00240675313398242, 0.0014048111625015736, -0.0008726546075195074, 0.0022017185110598803, 0.0019630875904113054, -5.693804632755928e-05, -0.0017999085830524564, -0.0019390278030186892], [0.001299707917496562, 0.0002902369014918804, 0.0016360701993107796, -0.0005739490734413266, -0.0006098250159993768, -0.0012665470130741596, 0.001297062262892723, 0.00026738442829810083, -0.00087502202950418, 0.0011962472926825285], [0.0012103850021958351, 0.0017512396443635225, 0.002192047191783786, 0.000377396063413471, -0.00012167501699877903, 0.0005453493213281035, -0.0007964243413880467, -0.0003170360578224063, 0.00410423381254077, -5.176430204301141e-05], [-0.00019073493604082614, 0.0005377386114560068, -0.004164369311183691, -0.0002135384565917775, -0.002335622673854232, -0.0021450589410960674, -0.005437627900391817, 0.001521462108939886, 0.0010961572406813502, -0.0050641633570194244], [0.0015944477636367083, -0.0006528092199005187, 0.0020585888996720314, -0.004022792913019657, -0.0031160733196884394, -0.0017302996711805463, 0.004091447219252586, 0.001732144271954894, -0.0008110889466479421, 0.00018504502077121288], [-0.0023682089522480965, -0.00020739473984576762, -0.005007588304579258, 0.006861320696771145, -0.0010224964935332537, -0.0024473133962601423, -0.00010520625073695555, 0.0013630747562274337, 0.00207973038777709, -0.0010913945734500885], [0.0014353024307638407, -0.0008362241787835956, -0.0007577198557555676, 0.0007540762308053672, 0.002286885166540742, -0.0013334688264876604, 0.0002972117508761585, 0.007137332111597061, -0.0034936636220663786, 1.7960699551622383e-05]], "exp_avg_sq": [[5.802908731311618e-07, 4.0414704916003075e-10, 4.6365659045477514e-07, 2.7299216753817745e-07, 3.0234136261242384e-07, 4.5589672481582966e-08, 4.354628302394303e-08, 3.012135207924871e-09, 2.0974337644474872e-07, 8.453071131953038e-08], [1.313970017235988e-07, 2.725487320276443e-07, 2.7751883635573904e-07, 2.563633083596528e-09, 1.3960745945951203e-06, 5.221347691986011e-07, 1.56532156125877e-08, 3.129808874291484e-07, 9.451644018554362e-07, 1.3443866679618832e-11], [2.013183575400035e-06, 3.668502017717401e-07, 9.217208107870078e-10, 1.1701514779360878e-07, 4.215361393278272e-09, 2.2342169359035324e-06, 4.733091429898195e-08, 1.684310824145996e-08, 2.3822140065021813e-06, 2.072890083582024e-06], [1.8278193181231472e-08, 1.7719295328788576e-06, 4.3983317254969734e-07, 4.697999855807211e-08, 6.948312147869729e-07, 1.0801254575198982e-06, 3.5111099805362755e-06, 1.426223690259576e-07, 1.5846120504647843e-07, 1.3192489234370441e-07], [7.567799684693455e-07, 4.820586809728411e-07, 2.582342176538077e-06, 8.600500933653166e-08, 1.4644028851762414e-06, 1.2701864307018695e-06, 3.9254823036571906e-07, 3.5323144409460383e-09, 3.342707888265295e-09, 7.951192593225187e-09], [1.9532632222762913e-07, 3.04354266233986e-08, 3.013763318904239e-07, 9.19855924763624e-09, 1.0260374949666584e-07, 2.7499487487148144e-07, 6.972223332013527e-08, 4.7829469274063285e-09, 4.3927596493631427e-07, 7.802861290429064e-08], [1.2591893039370916e-07, 2.7949511149927275e-06, 5.649399525964327e-08, 7.096129905903581e-08, 1.2931540283034337e-09, 8.62464411000019e-09, 2.227802724519279e-06, 7.798274168635544e-07, 1.157023032938298e-09, 7.021699843789975e-08], [9.96374893702523e-08, 1.4943668524836085e-09, 5.811835421809519e-07, 1.4090880995354382e-07, 3.0309817589113663e-07, 9.99708831272983e-08, 6.671108110367641e-10, 1.341857824854742e-07, 7.600363005622057e-07, 2.432209100788896e-07], [4.767722657561535e-06, 2.6209863790427335e-06, 4.049308699904941e-06, 1.984917048503121e-07, 8.532349966117181e-06, 1.1236534191993997e-06, 1.836243313846353e-06, 5.070752351343799e-08, 1.1582442560609252e-08, 1.7926477369201166e-07], [7.44114032613652e-08, 4.827045358979376e-07, 1.157437054644106e-06, 7.731689777301654e-08, 9.493304276020353e-08, 2.1316736820153892e-07, 5.250006438473065e-07, 9.816884727342767e-08, 1.3713908231238747e-08, 2.1529924509877674e-08], [1.527085487396107e-06, 1.8814098723396455e-07, 1.0242340309218889e-08, 1.6417736503626656e-07, 1.1113465916423593e-06, 1.2282318948564352e-06, 1.6025031754907104e-06, 1.472439379313073e-07, 4.464184257813031e-06, 1.5927993217701442e-06], [2.5268132475275706e-08, 7.127844536825023e-09, 7.930339052109048e-08, 4.3491810153284405e-09, 4.886422999561546e-08, 1.675001115586383e-08, 2.7002620583971293e-08, 1.0502484437679982e-09, 1.3522052366710113e-09, 1.952341399658053e-09], [6.357092274811293e-08, 7.23953235137742e-08, 1.0348706069862601e-07, 3.080858732573688e-07, 8.031887155368622e-09, 2.6570696753935863e-09, 1.4840153994555294e-08, 1.0863687727180604e-08, 1.516964154291145e-08, 1.1487992424008553e-07], [5.564487537412788e-07, 3.358988465151924e-07, 1.9606508772085363e-07, 6.63466863670692e-08, 2.5588223095951435e-08, 1.6429298455022945e-07, 1.3004955690121278e-07, 1.2603711130321216e-10, 1.0977011299928563e-07, 1.272047853717595e-07], [5.699065752651222e-08, 3.222137889835608e-09, 8.962790332134318e-08, 1.1286362067153277e-08, 1.2602019872076653e-08, 5.475883924077607e-08, 5.748159281893095e-08, 2.4172170931535675e-09, 2.5656014202013466e-08, 4.8488860926454436e-08], [4.907455064540045e-08, 1.0303818953616428e-07, 1.6234405109116778e-07, 4.7471502284679445e-09, 4.998823577295752e-10, 1.0218772494852146e-08, 2.1303785402437825e-08, 3.5763378924968947e-09, 5.665569915436208e-07, 9.58990664656767e-11], [1.4016660054849694e-09, 9.906269582415916e-09, 5.858610734321701e-07, 1.520124248699517e-09, 1.8645393140559463e-07, 1.5541876052793668e-07, 9.98346763481095e-07, 7.763295428730999e-08, 4.062207636934545e-08, 8.716266393093974e-07], [8.5401076432845e-08, 1.4450284524514245e-08, 1.425715083769319e-07, 5.467295522976201e-07, 3.3027811241481686e-07, 1.018953597053951e-07, 5.66391122447385e-07, 1.0109609860364799e-07, 2.1934475569196366e-08, 1.1617709017031075e-09], [1.8962649050990876e-07, 1.450681130776843e-09, 8.531228559149895e-07, 1.5884475033089984e-06, 3.5191305869375356e-08, 2.0192447891531629e-07, 4.100806361151399e-10, 6.365965532495466e-08, 1.4599068265397364e-07, 4.098952999243011e-08], [7.055352568841045e-08, 2.369156604231648e-08, 2.0042401516207065e-08, 2.160238565807049e-08, 1.7559810316924995e-07, 6.454389023247131e-08, 3.2206810551826948e-09, 1.7440211195207667e-06, 4.1751320623006904e-07, 5.2567006303405606e-11]]}, "1": {"step": 4.0, "exp_avg": [-0.002680053235962987, 0.006912307348102331, 0.013157885521650314, -0.016471678391098976, -0.00012657901970669627, 0.00063606962794438, 0.009118892252445221, 0.006637768354266882, 0.00608146283775568, 0.005514523480087519, 0.008091980591416359, -0.0001906377001432702, 0.003920304588973522, -0.0017521711997687817, 0.0002326102985534817, -0.0019571820739656687, -0.00725233368575573, 0.0036908136680722237, -0.01058997493237257, 0.0023982978891581297], "exp_avg_sq": [2.408774832929339e-07, 1.6301844425470335e-06, 5.8993191487388685e-06, 9.22359868127387e-06, 6.971687671608606e-10, 1.6820765225133982e-08, 2.8656340873567387e-06, 1.5026380424387753e-06, 1.2507622386692674e-06, 1.0231327678411617e-06, 2.23946881305892e-06, 1.5467231939680914e-09, 5.290215199238446e-07, 1.0511710257787854e-07, 2.2278372480144526e-09, 1.2877153210411052e-07, 1.784173036867287e-06, 4.6499064865201944e-07, 3.7897511901974212e-06, 2.0380703347200324e-07]}, "2": {"step": 4.0, "exp_avg": [[-0.0026920209638774395, -0.02788389101624489, -0.009411735460162163, -0.0257390309125185, -0.014879678376019001, -0.0014652671525254846, -0.022536717355251312, -0.021853439509868622, -0.017877425998449326, -0.011712492443621159, -0.016196895390748978, -0.040759384632110596, -0.01520149502903223, -0.031167885288596153, -0.012208948843181133, -0.0064804693683981895, -0.008723871782422066, -0.0042817676439881325, -0.02831110917031765, -0.013755008578300476], [0.007241669110953808, -0.0032459611538797617, -0.020878128707408905, -0.0368817001581192, -0.005571160465478897, 0.005390744656324387, -0.016325803473591805, -0.0053311362862586975, -0.005869693588465452, -0.014824042096734047, -0.014277143403887749, -0.018748678267002106, 5.973986117169261e-05, -0.011177929118275642, -0.009630652144551277, -0.0373677983880043, -0.03216871619224548, -0.02587829902768135, -0.009528910741209984, -0.007147074677050114]], "exp_avg_sq": [[2.524876094867068e-07, 2.6571557100396603e-05, 3.051974772461108e-06, 2.259227585454937e-05, 7.531340088462457e-06, 7.451767203292547e-08, 1.7368833141517825e-05, 1.6284278899547644e-05, 1.090483146981569e-05, 4.723621259472566e-06, 8.988034096546471e-06, 5.6330536608584225e-05, 7.907140570750926e-06, 3.29676186083816e-05, 5.1263050409033895e-06, 1.4691731848870404e-06, 2.6088080176123185e-06, 6.417502618205617e-07, 2.7166486688656732e-05, 6.419729288609233e-06], [1.7697410612527165e-06, 3.861706545649213e-07, 1.483775213273475e-05, 4.6162189391907305e-05, 1.0970253470077296e-06, 9.712063047118136e-07, 9.096037501876708e-06, 9.851228242041543e-07, 1.1714046195265837e-06, 7.54419215809321e-06, 6.972252776904497e-06, 1.2044918548781425e-05, 8.073018697984935e-09, 4.257748059899313e-06, 3.162024086122983e-06, 4.728580825030804e-05, 3.512985131237656e-05, 2.265776856802404e-05, 3.107437350990949e-06, 1.7495170823167427e-06]]}, "3": {"step": 4.0, "exp_avg": [-0.09826245158910751, -0.08187227696180344], "exp_avg_sq": [0.00032827552058734, 0.00022788532078266144]}}, "param_groups": [{"lr": 0.001, "betas": [0.9, 0.999], "eps": 1e-08, "weight_decay": 0, "amsgrad": false, "maximize": false, "foreach": null, "capturable": false, "differentiable": false, "fused": null, "params": [0, 1, 2, 3]}]}, "epoch": 4, "loss": 1.08573579788208}